{"learner":{"attributes":{"scikit_learn":"{\"_estimator_type\": \"classifier\"}"},"feature_names":["NumDots","SubdomainLevel","PathLevel","UrlLength","NumDash","NumDashInHostname","AtSymbol","TildeSymbol","NumUnderscore","NumPercent","NumQueryComponents","NumAmpersand","NumHash","NumNumericChars","NoHttps","RandomString","IpAddress","DomainInSubdomains","DomainInPaths","HttpsInHostname","HostnameLength","PathLength","QueryLength","DoubleSlashInPath","NumSensitiveWords","EmbeddedBrandName","PctExtHyperlinks","PctExtResourceUrls","ExtFavicon","InsecureForms","RelativeFormAction","ExtFormAction","AbnormalFormAction","PctNullSelfRedirectHyperlinks","FrequentDomainNameMismatch","FakeLinkInStatusBar","RightClickDisabled","PopUpWindow","SubmitInfoToEmail","IframeOrFrame","MissingTitle","ImagesOnlyInForm","SubdomainLevelRT","UrlLengthRT","PctExtResourceUrlsRT","AbnormalExtFormActionR","ExtMetaScriptLinkRT","PctExtNullSelfRedirectHyperlinksRT"],"feature_types":["int","int","int","int","int","int","int","int","int","int","int","int","int","int","int","int","int","int","int","int","int","int","int","int","int","int","float","float","int","int","int","int","int","float","int","int","int","int","int","int","int","int","int","int","int","int","int","int"],"gradient_booster":{"model":{"gbtree_model_param":{"num_parallel_tree":"1","num_trees":"100"},"iteration_indptr":[0,1,2,3,4,5,6,7,8,9,10,11,12,13,14,15,16,17,18,19,20,21,22,23,24,25,26,27,28,29,30,31,32,33,34,35,36,37,38,39,40,41,42,43,44,45,46,47,48,49,50,51,52,53,54,55,56,57,58,59,60,61,62,63,64,65,66,67,68,69,70,71,72,73,74,75,76,77,78,79,80,81,82,83,84,85,86,87,88,89,90,91,92,93,94,95,96,97,98,99,100],"tree_info":[0,0,0,0,0,0,0,0,0,0,0,0,0,0,0,0,0,0,0,0,0,0,0,0,0,0,0,0,0,0,0,0,0,0,0,0,0,0,0,0,0,0,0,0,0,0,0,0,0,0,0,0,0,0,0,0,0,0,0,0,0,0,0,0,0,0,0,0,0,0,0,0,0,0,0,0,0,0,0,0,0,0,0,0,0,0,0,0,0,0,0,0,0,0,0,0,0,0,0,0],"trees":[{"base_weights":[1.4108068E-7,1.855655E0,-7.7817774E-1,1.8897349E0,-9.551565E-1,1.2274712E0,-1.7587545E0,1.920458E0,2.6330447E-1,-4.5787805E-1,3.3575982E-1,-6.180981E-1,1.5406944E0,-1.8751109E0,1.3522815E0,2.9746515E-1,1.9320475E0,1.3722407E0,-8.0249876E-1,-1.2548945E0,1.0011576E0,1.7118049E0,-1.1290058E0,-1.8911709E0,-7.865051E-1,1.7405885E0,-6.031421E-1,-3.5740125E-1,3.6320406E-1,1.9371456E0,-6.4251855E-2,4.835004E-1,6.908538E-2,-1.1884499E0,5.731558E-2,9.6854216E-1,-1.5139934E0,1.5288484E0,-3.849243E-1,1.7799017E0,-5.188157E-1,-1.4804937E0,3.6320406E-1,-1.9165084E0,-1.5161774E0,-1.5547079E0,3.8273948E-1,2.6101077E-3,1.8338903E0,2.608854E-1,-4.2548028E-1,5.826703E-1,2.6101077E-3,-1.1739369E-1,-4.2548028E-1,-1.9758908E-1,4.7006926E-1,-5.2673733E-1,-1.7745842E-1,5.386054E-1,4.3191697E-2,4.1580215E-2,5.5486465E-1,-5.0116706E-1,-3.681139E-2,-4.918851E-1,-5.826984E-1,-2.9036832E-1,-5.702706E-1,-6.4251855E-2,-5.212177E-1,-3.309263E-1,2.7629828E-1,6.908538E-2,5.702525E-1,3.845993E-1,-3.309263E-1],"categories":[],"categories_nodes":[],"categories_segments":[],"categories_sizes":[],"default_left":[0,0,0,0,0,0,0,0,0,0,0,0,0,0,0,0,0,0,0,0,0,0,0,0,0,0,0,0,0,0,0,0,0,0,0,0,0,0,0,0,0,0,0,0,0,0,0,0,0,0,0,0,0,0,0,0,0,0,0,0,0,0,0,0,0,0,0,0,0,0,0,0,0,0,0,0,0],"id":0,"left_children":[1,3,5,7,9,11,13,15,17,-1,-1,19,21,23,25,27,29,31,33,35,37,39,41,43,45,47,49,-1,-1,51,-1,-1,-1,53,-1,55,57,59,-1,61,-1,63,-1,65,67,69,71,-1,73,75,-1,-1,-1,-1,-1,-1,-1,-1,-1,-1,-1,-1,-1,-1,-1,-1,-1,-1,-1,-1,-1,-1,-1,-1,-1,-1,-1],"loss_changes":[2.8907957E3,5.8462646E1,2.776033E3,2.8712158E1,1.0888979E1,2.6902045E2,3.4559302E2,1.0217041E1,1.5283432E1,0E0,0E0,7.136998E1,1.8316406E2,1.4491211E1,2.7434319E1,8.579908E0,6.645996E0,1.3376284E0,2.815308E0,2.9837341E1,2.5766535E1,9.053894E1,2.1939486E1,5.6450195E0,1.4067641E1,4.7102585E0,4.9476914E0,0E0,0E0,5.559082E0,0E0,0E0,0E0,3.6095715E-1,0E0,6.6301193E0,8.886612E0,5.8309326E0,0E0,4.1636597E1,0E0,5.4076576E0,0E0,2.8149414E0,1.11848755E1,1.8930702E0,6.4140325E0,0E0,2.5414505E0,6.985014E0,0E0,0E0,0E0,0E0,0E0,0E0,0E0,0E0,0E0,0E0,0E0,0E0,0E0,0E0,0E0,0E0,0E0,0E0,0E0,0E0,0E0,0E0,0E0,0E0,0E0,0E0,0E0],"parents":[2147483647,0,0,1,1,2,2,3,3,4,4,5,5,6,6,7,7,8,8,11,11,12,12,13,13,14,14,15,15,16,16,17,17,18,18,19,19,20,20,21,21,22,22,23,23,24,24,25,25,26,26,29,29,33,33,35,35,36,36,37,37,39,39,41,41,43,43,44,44,45,45,46,46,48,48,49,49],"right_children":[2,4,6,8,10,12,14,16,18,-1,-1,20,22,24,26,28,30,32,34,36,38,40,42,44,46,48,50,-1,-1,52,-1,-1,-1,54,-1,56,58,60,-1,62,-1,64,-1,66,68,70,72,-1,74,76,-1,-1,-1,-1,-1,-1,-1,-1,-1,-1,-1,-1,-1,-1,-1,-1,-1,-1,-1,-1,-1,-1,-1,-1,-1,-1,-1],"split_conditions":[0E0,6E0,3.32668E-3,1E0,1E0,1E0,1E0,1E0,1.3636364E-1,-4.5787805E-1,3.3575982E-1,1E0,1.9379845E-3,1E0,1E0,2E0,5E0,6E0,8.666667E-1,1E0,1E0,1E0,2.5454545E-1,1E0,3E0,2E0,1E0,-3.5740125E-1,3.6320406E-1,5E0,-6.4251855E-2,4.835004E-1,6.908538E-2,5.5E1,5.731558E-2,2E0,1E0,4E0,-3.849243E-1,2E0,-5.188157E-1,1E0,3.6320406E-1,3.0303031E-2,1E0,6.3E1,2E0,2.6101077E-3,1E0,1E0,-4.2548028E-1,5.826703E-1,2.6101077E-3,-1.1739369E-1,-4.2548028E-1,-1.9758908E-1,4.7006926E-1,-5.2673733E-1,-1.7745842E-1,5.386054E-1,4.3191697E-2,4.1580215E-2,5.5486465E-1,-5.0116706E-1,-3.681139E-2,-4.918851E-1,-5.826984E-1,-2.9036832E-1,-5.702706E-1,-6.4251855E-2,-5.212177E-1,-3.309263E-1,2.7629828E-1,6.908538E-2,5.702525E-1,3.845993E-1,-3.309263E-1],"split_indices":[47,4,26,38,24,29,34,2,27,0,0,34,33,24,39,0,8,13,26,14,39,38,33,27,2,2,30,0,0,10,0,0,0,3,0,2,39,4,0,2,0,28,0,27,39,3,0,0,45,1,0,0,0,0,0,0,0,0,0,0,0,0,0,0,0,0,0,0,0,0,0,0,0,0,0,0,0],"split_type":[0,0,0,0,0,0,0,0,0,0,0,0,0,0,0,0,0,0,0,0,0,0,0,0,0,0,0,0,0,0,0,0,0,0,0,0,0,0,0,0,0,0,0,0,0,0,0,0,0,0,0,0,0,0,0,0,0,0,0,0,0,0,0,0,0,0,0,0,0,0,0,0,0,0,0,0,0],"sum_hessian":[1.9998949E3,5.9046893E2,1.4094259E3,5.837193E2,6.749645E0,4.6272568E2,9.4670026E2,5.727199E2,1.0999422E1,5.499711E0,1.2499343E0,6.6996475E1,3.957292E2,9.12952E2,3.3748226E1,4.2497764E0,5.684701E2,5.249724E0,5.7496977E0,4.8247463E1,1.8749014E1,3.7223044E2,2.3498764E1,8.9895276E2,1.3999264E1,2.8248514E1,5.499711E0,1.4999211E0,2.7498555E0,5.6722015E2,1.2499343E0,3.9997897E0,1.2499343E0,3.9997897E0,1.749908E0,4.74975E0,4.3497715E1,1.5499186E1,3.249829E0,3.6548077E2,6.749645E0,2.0748909E1,2.7498555E0,8.3820593E2,6.0746807E1,8.249566E0,5.7496977E0,1.4999211E0,2.6748594E1,2.9998422E0,2.4998686E0,5.657203E2,1.4999211E0,1.4999211E0,2.4998686E0,1.2499343E0,3.499816E0,3.3748226E1,9.749488E0,1.274933E1,2.7498555E0,1.4999211E1,3.5048157E2,1.7999054E1,2.7498555E0,7.699595E1,7.6120996E2,2.6498608E1,3.42482E1,1.2499343E0,6.999632E0,1.2499343E0,4.4997635E0,1.2499343E0,2.549866E1,1.749908E0,1.2499343E0],"tree_param":{"num_deleted":"0","num_feature":"48","num_nodes":"77","size_leaf_vector":"1"}},{"base_weights":[-2.217353E-3,1.4196452E0,-5.9816855E-1,1.4463843E0,-7.2041863E-1,9.261826E-1,-1.35548E0,1.4711387E0,1.967528E-1,-3.6019766E-1,2.8425136E-1,-4.648197E-1,1.1653625E0,-1.4463224E0,1.0256141E0,8.0499995E-1,1.4965404E0,1.0248104E0,-7.156799E-1,-9.461225E-1,7.542125E-1,1.2964768E0,-8.476993E-1,-1.4588933E0,-6.235293E-1,1.338043E0,-4.9784684E-1,4.404378E-1,-5.7149833E-1,1.5058187E0,5.742956E-1,6.2323168E-2,3.9718056E-1,-3.1272233E-1,9.81504E-2,7.547181E-1,-1.1485124E0,1.1739951E0,-3.0691952E-1,1.3495023E0,-4.1071942E-1,-1.1120119E0,3.5092476E-1,-1.4805645E0,-1.1478664E0,-1.1453778E0,4.5842305E-1,2.1402445E-3,1.4149122E0,2.015849E-1,-3.4741437E-1,-4.836714E-1,3.371895E-1,4.5763844E-1,3.3426028E-1,-2.7401096E-1,3.4932512E-1,-1.8874314E-1,3.874246E-1,-3.9703926E-1,-6.9707766E-2,4.3866256E-1,8.948263E-2,4.491583E-1,2.2788867E-1,-3.7944865E-1,2.2958916E-1,-3.7187392E-1,-4.5111954E-1,-2.1308996E-1,-4.6564162E-1,-4.160298E-1,9.986261E-2,3.2050177E-1,-2.1319012E-1,5.759522E-2,4.4074214E-1,3.187489E-1,-2.808919E-1],"categories":[],"categories_nodes":[],"categories_segments":[],"categories_sizes":[],"default_left":[0,0,0,0,0,0,0,0,0,0,0,0,0,0,0,0,0,0,0,0,0,0,0,0,0,0,0,0,0,0,0,0,0,0,0,0,0,0,0,0,0,0,0,0,0,0,0,0,0,0,0,0,0,0,0,0,0,0,0,0,0,0,0,0,0,0,0,0,0,0,0,0,0,0,0,0,0,0,0],"id":1,"left_children":[1,3,5,7,9,11,13,15,17,-1,-1,19,21,23,25,27,29,31,33,35,37,39,41,43,45,47,49,-1,51,53,55,-1,-1,-1,-1,57,59,61,-1,63,-1,65,-1,67,69,71,73,-1,75,77,-1,-1,-1,-1,-1,-1,-1,-1,-1,-1,-1,-1,-1,-1,-1,-1,-1,-1,-1,-1,-1,-1,-1,-1,-1,-1,-1,-1,-1],"loss_changes":[1.5704918E3,3.2365723E1,1.5089126E3,1.644458E1,7.083108E0,1.4495703E2,1.9030176E2,7.7686768E0,9.54495E0,0E0,0E0,3.8499554E1,9.893402E1,7.791748E0,1.6213703E1,2.0594835E1,3.496338E0,1.319725E0,2.432202E0,1.6913376E1,1.5216894E1,5.109082E1,1.3709608E1,3.8804932E0,8.658979E0,2.790741E0,3.1368732E0,0E0,1.5498723E1,2.177124E0,6.939316E0,0E0,0E0,0E0,0E0,4.9423876E0,6.4331512E0,3.5169716E0,0E0,2.8666931E1,0E0,7.017725E0,0E0,2.4375E0,9.223785E0,4.031539E0,4.6107254E0,0E0,1.4340591E0,4.8201127E0,0E0,0E0,0E0,0E0,0E0,0E0,0E0,0E0,0E0,0E0,0E0,0E0,0E0,0E0,0E0,0E0,0E0,0E0,0E0,0E0,0E0,0E0,0E0,0E0,0E0,0E0,0E0,0E0,0E0],"parents":[2147483647,0,0,1,1,2,2,3,3,4,4,5,5,6,6,7,7,8,8,11,11,12,12,13,13,14,14,15,15,16,16,17,17,18,18,19,19,20,20,21,21,22,22,23,23,24,24,25,25,26,26,28,28,29,29,30,30,35,35,36,36,37,37,39,39,41,41,43,43,44,44,45,45,46,46,48,48,49,49],"right_children":[2,4,6,8,10,12,14,16,18,-1,-1,20,22,24,26,28,30,32,34,36,38,40,42,44,46,48,50,-1,52,54,56,-1,-1,-1,-1,58,60,62,-1,64,-1,66,-1,68,70,72,74,-1,76,78,-1,-1,-1,-1,-1,-1,-1,-1,-1,-1,-1,-1,-1,-1,-1,-1,-1,-1,-1,-1,-1,-1,-1,-1,-1,-1,-1,-1,-1],"split_conditions":[0E0,6E0,3.32668E-3,1E0,1E0,1E0,1E0,1E0,1.5E-1,-3.6019766E-1,2.8425136E-1,1E0,1.9379845E-3,1E0,1E0,1E0,6E1,1.9379845E-3,8.181818E-1,1E0,1E0,1E0,2.8715366E-1,1E0,3.5E1,2E0,1E0,4.404378E-1,1E0,3E0,8.181818E-1,6.2323168E-2,3.9718056E-1,-3.1272233E-1,9.81504E-2,4.8E1,6.1E1,9.708738E-3,-3.0691952E-1,6E0,-4.1071942E-1,1.9E1,3.5092476E-1,3.0303031E-2,3E0,1E0,1.9379845E-3,2.1402445E-3,1E0,1E0,-3.4741437E-1,-4.836714E-1,3.371895E-1,4.5763844E-1,3.3426028E-1,-2.7401096E-1,3.4932512E-1,-1.8874314E-1,3.874246E-1,-3.9703926E-1,-6.9707766E-2,4.3866256E-1,8.948263E-2,4.491583E-1,2.2788867E-1,-3.7944865E-1,2.2958916E-1,-3.7187392E-1,-4.5111954E-1,-2.1308996E-1,-4.6564162E-1,-4.160298E-1,9.986261E-2,3.2050177E-1,-2.1319012E-1,5.759522E-2,4.4074214E-1,3.187489E-1,-2.808919E-1],"split_indices":[47,4,26,38,24,29,34,29,27,0,0,34,33,24,39,14,22,33,27,14,39,38,33,27,21,2,30,0,31,4,26,0,0,0,0,3,21,27,0,22,0,13,0,27,4,5,33,0,45,1,0,0,0,0,0,0,0,0,0,0,0,0,0,0,0,0,0,0,0,0,0,0,0,0,0,0,0,0,0],"split_type":[0,0,0,0,0,0,0,0,0,0,0,0,0,0,0,0,0,0,0,0,0,0,0,0,0,0,0,0,0,0,0,0,0,0,0,0,0,0,0,0,0,0,0,0,0,0,0,0,0,0,0,0,0,0,0,0,0,0,0,0,0,0,0,0,0,0,0,0,0,0,0,0,0,0,0,0,0,0,0],"sum_hessian":[1.8513904E3,5.463907E2,1.3049996E3,5.3996814E2,6.422535E0,4.3307117E2,8.719285E2,5.293057E2,1.0662432E1,5.204241E0,1.2182944E0,6.340166E1,3.6966953E2,8.4026373E2,3.1664793E1,2.064328E1,5.086624E2,5.5250945E0,5.137337E0,4.5615467E1,1.7786196E1,3.4739877E2,2.2270754E1,8.268576E2,1.3406115E1,2.6377125E1,5.2876678E0,1.388678E1,6.7565007E0,5.0296945E2,5.6929617E0,1.9347588E0,3.5903354E0,3.9120884E0,1.2252488E0,4.5605493E0,4.1054916E1,1.4662451E1,3.123744E0,3.4110687E2,6.2918997E0,2.0087788E1,2.1829658E0,7.6948285E2,5.7374783E1,9.004455E0,4.40166E0,1.4999468E0,2.4877178E1,2.9048579E0,2.3828099E0,4.2170205E0,2.5394802E0,4.7618948E2,2.6779972E1,1.4613099E0,4.231652E0,1.2263027E0,3.3342466E0,3.409872E1,6.9561977E0,1.0527845E1,4.1346054E0,2.715726E2,6.953426E1,1.8877386E1,1.2104032E0,7.226734E1,6.9721545E2,2.8876797E1,2.8497986E1,7.79369E0,1.2107648E0,2.9491777E0,1.452482E0,1.2490693E0,2.3628107E1,1.6914161E0,1.2134418E0],"tree_param":{"num_deleted":"0","num_feature":"48","num_nodes":"79","size_leaf_vector":"1"}},{"base_weights":[-2.1105558E-3,1.2090849E0,-5.049443E-1,1.2585014E0,2.7809137E-1,7.625914E-1,-1.1538223E0,6.2335384E-1,1.28532E0,-1.299199E0,4.0377158E-1,-3.6918977E-1,9.6361357E-1,-1.2326522E0,8.491002E-1,3.787997E-1,-4.7489578E-1,1.2904018E0,-7.896171E-2,-1.4797494E0,4.7148995E-2,2.4427047E-1,-1.0287523E0,1.0733199E0,-6.631165E-1,-1.2373478E0,1.3043809E-1,1.1277229E0,-4.3289146E-1,-3.6295116E-1,2.918968E-1,1.3302928E-1,1.2961748E0,-1.0555097E-1,-1.5890819E0,6.687558E-1,-9.758473E-1,-1.2704862E0,3.8810745E-1,1.118376E0,-3.520513E-1,-8.8962847E-1,2.991374E-1,-1.267417E0,-9.130717E-1,1.2178314E0,2.6812956E-2,1.6201785E-1,-2.9790333E-1,-1.566191E-1,2.240027E-1,3.915049E-1,2.1489754E-1,-5.117867E-1,-1.2433844E-1,2.812429E-1,-3.098817E-1,-4.352563E-2,-3.208772E-1,-4.1161013E-1,-9.4967805E-2,-7.040781E-2,3.5645336E-1,-3.0889803E-1,1.9120769E-1,-3.8109946E-1,2.3429547E-2,3.4489068E-1,-3.3284828E-1,6.829254E-2,3.8005868E-1,2.744598E-1,-2.4473885E-1],"categories":[],"categories_nodes":[],"categories_segments":[],"categories_sizes":[],"default_left":[0,0,0,0,0,0,0,0,0,0,0,0,0,0,0,0,0,0,0,0,0,0,0,0,0,0,0,0,0,0,0,0,0,0,0,0,0,0,0,0,0,0,0,0,0,0,0,0,0,0,0,0,0,0,0,0,0,0,0,0,0,0,0,0,0,0,0,0,0,0,0,0,0],"id":2,"left_children":[1,3,5,7,9,11,13,15,17,19,-1,21,23,25,27,-1,29,31,-1,33,-1,35,37,39,41,43,-1,45,47,-1,-1,49,51,-1,53,55,57,59,-1,61,-1,63,-1,65,67,69,-1,71,-1,-1,-1,-1,-1,-1,-1,-1,-1,-1,-1,-1,-1,-1,-1,-1,-1,-1,-1,-1,-1,-1,-1,-1,-1],"loss_changes":[9.658721E2,2.1054688E1,9.226E2,6.7195435E0,4.3407173E1,8.682156E1,1.18140686E2,1.452215E1,3.6658325E0,2.9918938E0,0E0,2.3736908E1,5.8355804E1,6.1280518E0,1.0730665E1,0E0,9.714037E0,2.6436768E0,0E0,6.04084E-1,0E0,1.664671E1,1.7454689E1,3.1983856E1,8.79389E0,5.7872314E0,0E0,2.1210537E0,2.1075847E0,0E0,0E0,1.6787007E0,1.2145996E0,0E0,4.343834E-1,1.1716247E1,4.97231E-1,2.085476E0,0E0,2.8379913E1,0E0,4.725274E0,0E0,2.6450195E0,2.7210941E1,7.724533E-1,0E0,3.4647713E0,0E0,0E0,0E0,0E0,0E0,0E0,0E0,0E0,0E0,0E0,0E0,0E0,0E0,0E0,0E0,0E0,0E0,0E0,0E0,0E0,0E0,0E0,0E0,0E0,0E0],"parents":[2147483647,0,0,1,1,2,2,3,3,4,4,5,5,6,6,7,7,8,8,9,9,11,11,12,12,13,13,14,14,16,16,17,17,19,19,21,21,22,22,23,23,24,24,25,25,27,27,28,28,31,31,32,32,34,34,35,35,36,36,37,37,39,39,41,41,43,43,44,44,45,45,47,47],"right_children":[2,4,6,8,10,12,14,16,18,20,-1,22,24,26,28,-1,30,32,-1,34,-1,36,38,40,42,44,-1,46,48,-1,-1,50,52,-1,54,56,58,60,-1,62,-1,64,-1,66,68,70,-1,72,-1,-1,-1,-1,-1,-1,-1,-1,-1,-1,-1,-1,-1,-1,-1,-1,-1,-1,-1,-1,-1,-1,-1,-1,-1],"split_conditions":[0E0,4E0,3.32668E-3,1E0,1E0,1E0,1E0,1E0,5E0,6E0,4.0377158E-1,9.708738E-3,1.9379845E-3,4.3E1,1E0,3.787997E-1,1E0,1E0,-7.896171E-2,2.3E1,4.7148995E-2,1E0,6E0,1E0,2.8715366E-1,3.75E-1,1.3043809E-1,2E0,1E0,-3.6295116E-1,2.918968E-1,1E0,1E0,-1.0555097E-1,7.8E1,1E0,5.3E1,1E0,3.8810745E-1,2E0,-3.520513E-1,1.9E1,2.991374E-1,1.99E2,9.708738E-3,2E0,2.6812956E-2,1E0,-2.9790333E-1,-1.566191E-1,2.240027E-1,3.915049E-1,2.1489754E-1,-5.117867E-1,-1.2433844E-1,2.812429E-1,-3.098817E-1,-4.352563E-2,-3.208772E-1,-4.1161013E-1,-9.4967805E-2,-7.040781E-2,3.5645336E-1,-3.0889803E-1,1.9120769E-1,-3.8109946E-1,2.3429547E-2,3.4489068E-1,-3.3284828E-1,6.829254E-2,3.8005868E-1,2.744598E-1,-2.4473885E-1],"split_indices":[47,4,26,29,5,29,34,14,8,2,0,27,33,13,39,0,31,2,0,21,0,10,0,38,33,26,0,4,30,0,0,34,38,0,21,38,3,28,0,2,0,13,0,3,27,2,0,1,0,0,0,0,0,0,0,0,0,0,0,0,0,0,0,0,0,0,0,0,0,0,0,0,0],"split_type":[0,0,0,0,0,0,0,0,0,0,0,0,0,0,0,0,0,0,0,0,0,0,0,0,0,0,0,0,0,0,0,0,0,0,0,0,0,0,0,0,0,0,0,0,0,0,0,0,0,0,0,0,0,0,0,0,0,0,0,0,0,0,0,0,0,0,0,0,0,0,0,0,0],"sum_hessian":[1.5839164E3,4.6425137E2,1.119665E3,4.4051718E2,2.3734165E1,3.790477E2,7.4061725E2,1.882914E1,4.2168805E2,9.493874E0,1.4240293E1,5.7044285E1,3.2200342E2,7.1294226E2,2.7675003E1,1.1806593E1,7.0225477E0,4.2047488E2,1.2131739E0,8.432418E0,1.0614558E0,2.9881294E1,2.716299E1,3.0197827E2,2.0025166E1,7.111974E2,1.7448697E0,2.2832926E1,4.842078E0,4.7671633E0,2.2553847E0,2.2062266E0,4.1826865E2,1.1178916E0,7.314526E0,2.2503946E1,7.377348E0,2.5012493E1,2.1504967E0,2.9653403E2,5.44422E0,1.8029501E1,1.9956653E0,6.4818494E2,6.3012444E1,2.0850634E1,1.9822906E0,2.692785E0,2.1492932E0,1.1392614E0,1.0669651E0,4.107549E2,7.513747E0,6.241188E0,1.0733383E0,1.9822758E1,2.6811876E0,1.0063818E0,6.3709664E0,2.22099E1,2.802593E0,1.4431189E1,2.8210284E2,1.6813335E1,1.2161666E0,6.4683966E2,1.3452803E0,5.056749E0,5.7955696E1,1.2499703E0,1.9600664E1,1.55778E0,1.135005E0],"tree_param":{"num_deleted":"0","num_feature":"48","num_nodes":"73","size_leaf_vector":"1"}},{"base_weights":[-1.9791836E-3,1.0783353E0,-4.4233975E-1,1.13648E0,3.310903E-1,6.449234E-1,-1.0206198E0,5.4410297E-1,1.1674212E0,-6.546313E-1,3.6386287E-1,1.0118262E0,9.679463E-2,-1.0922577E0,7.2622114E-1,-2.0425701E-1,9.835255E-1,1.1789253E0,-8.676554E-3,2.933455E-1,-1.1959434E0,1.0850143E0,-1.0709484E0,-2.5092447E-1,9.86167E-1,-1.1248335E0,-6.769654E-1,-3.291283E-1,8.905669E-1,-7.980943E-1,2.663271E-1,1.9715212E-2,3.401285E-1,1.1941264E0,4.7153443E-1,-2.0962451E-1,2.5432593E-1,-1.4715694E0,7.2471164E-2,1.1257812E0,-2.9626516E-1,-4.299073E-1,9.357843E-2,9.237319E-1,-5.80432E-1,3.885462E-1,1.12055406E-1,-1.1404678E0,-3.105132E-1,-1.19009495E-1,-3.5193002E-1,1.138598E0,-1.368061E-1,-3.9275083E-1,1.1325425E-1,3.5911447E-1,5.448738E-2,-1.5174755E-1,2.6899052E-1,-5.2943367E-1,-1.2403608E-1,3.5086223E-1,-5.572618E-2,-1.8774946E-1,3.4974724E-1,-2.625424E-1,1.9594185E-1,-2.2338781E-1,2.2662722E-1,-2.5066602E-1,-3.5202822E-1,-2.5379488E-1,1.1550099E-1,2.9268888E-1,-1.5976693E-1,6.3891806E-2,3.6707273E-1,1.5293884E-1,-2.6234612E-1],"categories":[],"categories_nodes":[],"categories_segments":[],"categories_sizes":[],"default_left":[0,0,0,0,0,0,0,0,0,0,0,0,0,0,0,0,0,0,0,0,0,0,0,0,0,0,0,0,0,0,0,0,0,0,0,0,0,0,0,0,0,0,0,0,0,0,0,0,0,0,0,0,0,0,0,0,0,0,0,0,0,0,0,0,0,0,0,0,0,0,0,0,0,0,0,0,0,0,0],"id":3,"left_children":[1,3,5,7,9,11,13,15,17,19,-1,21,23,25,27,29,31,33,35,-1,37,39,41,43,45,47,49,-1,51,53,-1,-1,-1,55,57,-1,-1,59,-1,61,-1,-1,-1,63,65,-1,67,69,71,73,-1,75,77,-1,-1,-1,-1,-1,-1,-1,-1,-1,-1,-1,-1,-1,-1,-1,-1,-1,-1,-1,-1,-1,-1,-1,-1,-1,-1],"loss_changes":[6.252155E2,1.615924E1,5.876828E2,5.8292236E0,2.590221E1,6.521806E1,7.711261E1,6.574047E0,4.5334473E0,1.3796092E1,0E0,3.0802032E1,4.086233E1,7.1695557E0,8.356382E0,5.8949375E0,1.6328907E0,2.9970398E0,3.0929408E0,0E0,4.785407E0,1.702504E1,4.0040407E0,3.738997E1,9.879921E0,6.5473633E0,1.2359442E1,0E0,6.052822E0,3.9232593E0,0E0,0E0,0E0,7.3947144E-1,4.033889E0,0E0,0E0,2.2247696E0,0E0,1.0844864E1,0E0,0E0,0E0,8.699041E0,2.782696E1,0E0,6.508784E0,4.361145E0,4.6405916E0,1.0643813E1,0E0,1.2141438E0,3.0183003E0,0E0,0E0,0E0,0E0,0E0,0E0,0E0,0E0,0E0,0E0,0E0,0E0,0E0,0E0,0E0,0E0,0E0,0E0,0E0,0E0,0E0,0E0,0E0,0E0,0E0,0E0],"parents":[2147483647,0,0,1,1,2,2,3,3,4,4,5,5,6,6,7,7,8,8,9,9,11,11,12,12,13,13,14,14,15,15,16,16,17,17,18,18,20,20,21,21,22,22,23,23,24,24,25,25,26,26,28,28,29,29,33,33,34,34,37,37,39,39,43,43,44,44,46,46,47,47,48,48,49,49,51,51,52,52],"right_children":[2,4,6,8,10,12,14,16,18,20,-1,22,24,26,28,30,32,34,36,-1,38,40,42,44,46,48,50,-1,52,54,-1,-1,-1,56,58,-1,-1,60,-1,62,-1,-1,-1,64,66,-1,68,70,72,74,-1,76,78,-1,-1,-1,-1,-1,-1,-1,-1,-1,-1,-1,-1,-1,-1,-1,-1,-1,-1,-1,-1,-1,-1,-1,-1,-1,-1],"split_conditions":[0E0,3E0,3.32668E-3,2E0,1E0,9.708738E-3,1E0,8.333333E-1,3E0,1.8333334E-1,3.6386287E-1,3E0,1E0,1E0,1E0,9.3333334E-1,1E0,1E0,1E0,2.933455E-1,1E0,1E0,1E0,0E0,8.3870965E-1,1E0,1E0,-3.291283E-1,1E0,1E0,2.663271E-1,1.9715212E-2,3.401285E-1,3E0,2.4E1,-2.0962451E-1,2.5432593E-1,1.05E2,7.2471164E-2,1.9379845E-3,-2.9626516E-1,-4.299073E-1,9.357843E-2,1E0,1.8E1,3.885462E-1,4E0,3.0303031E-2,3E0,1E0,-3.5193002E-1,1.882353E-1,1E0,-3.9275083E-1,1.1325425E-1,3.5911447E-1,5.448738E-2,-1.5174755E-1,2.6899052E-1,-5.2943367E-1,-1.2403608E-1,3.5086223E-1,-5.572618E-2,-1.8774946E-1,3.4974724E-1,-2.625424E-1,1.9594185E-1,-2.2338781E-1,2.2662722E-1,-2.5066602E-1,-3.5202822E-1,-2.5379488E-1,1.1550099E-1,2.9268888E-1,-1.5976693E-1,6.3891806E-2,3.6707273E-1,1.5293884E-1,-2.6234612E-1],"split_indices":[47,4,26,2,5,27,34,26,8,26,0,10,28,27,29,33,29,38,4,0,26,38,24,46,27,24,39,0,30,15,0,0,0,9,21,0,0,3,0,33,0,0,0,29,13,0,2,27,2,28,0,26,39,0,0,0,0,0,0,0,0,0,0,0,0,0,0,0,0,0,0,0,0,0,0,0,0,0,0],"split_type":[0,0,0,0,0,0,0,0,0,0,0,0,0,0,0,0,0,0,0,0,0,0,0,0,0,0,0,0,0,0,0,0,0,0,0,0,0,0,0,0,0,0,0,0,0,0,0,0,0,0,0,0,0,0,0,0,0,0,0,0,0,0,0,0,0,0,0,0,0,0,0,0,0,0,0,0,0,0,0],"sum_hessian":[1.3122267E3,3.795781E2,9.326486E2,3.5169135E2,2.7886742E1,3.237775E2,6.088711E2,1.8380348E1,3.33311E2,1.328899E1,1.4597752E1,1.9344475E2,1.3033273E2,5.8524493E2,2.3626213E1,6.9978337E0,1.1382515E1,3.300799E2,3.2311065E0,3.1084292E0,1.0180561E1,1.8734071E2,6.1040463E0,9.4215164E1,3.6117565E1,5.4109283E2,4.415207E1,1.4842162E0,2.2141996E1,4.707208E0,2.290626E0,1.8033135E0,9.579202E0,3.2246243E2,7.6174583E0,1.891299E0,1.3398075E0,8.5227375E0,1.6578233E0,1.8417485E2,3.1658547E0,4.808724E0,1.2953223E0,2.0244057E1,7.397111E1,2.6328947E1,9.788619E0,5.30507E2,1.0585826E1,2.1364876E1,2.2787195E1,1.7748777E1,4.393218E0,3.2017105E0,1.5054976E0,3.2135284E2,1.1095865E0,2.2513733E0,5.366085E0,6.1505404E0,2.3721972E0,1.78333E2,5.8418555E0,2.5212357E0,1.772282E1,5.994126E1,1.4029846E1,4.1308174E0,5.657801E0,5.4321384E1,4.761856E2,5.858839E0,4.726987E0,5.4855943E0,1.5879282E1,1.7872515E0,1.5961527E1,2.5057576E0,1.8874605E0],"tree_param":{"num_deleted":"0","num_feature":"48","num_nodes":"79","size_leaf_vector":"1"}},{"base_weights":[-3.683963E-4,9.8515534E-1,-3.9027205E-1,1.0422928E0,2.9171368E-1,5.4846E-1,-9.2299175E-1,1.067859E0,2.2332005E-1,-5.338083E-1,3.3442932E-1,-3.5717306E-1,7.3054314E-1,-9.8922366E-1,6.260991E-1,1.0861744E0,3.3417434E-1,-7.8566724E-1,3.0688974E-1,2.6428485E-1,-9.7373134E-1,-6.713924E-1,4.9322975E-1,1.0533664E0,2.8519174E-1,-7.875584E-1,-1.0796807E0,-2.872544E-1,7.853707E-1,6.6216856E-1,1.1080964E0,-2.7654862E-1,3.121512E-1,-3.0220044E-1,-2.2553616E-4,-1.2151947E0,5.9522387E-2,5.7063866E-1,-8.2600915E-1,7.4839944E-1,-2.847392E-1,1.1007733E0,-9.3299526E-1,3.9672536E-1,-1.4617287E0,-2.7778918E-1,-1.0356988E0,-1.1253883E0,-5.868285E-1,1.0294927E0,-1.2959485E-1,5.7245184E-2,2.8587356E-1,3.336335E-1,8.828208E-2,-2.21755E-1,2.3203646E-1,-4.4395468E-1,-9.997212E-2,2.997312E-1,-1.378984E-1,-3.1651437E-1,-4.062346E-2,2.9623792E-1,-1.3362536E-1,3.3638903E-1,2.986344E-2,-4.4203085E-1,3.4270294E-2,-2.4325128E-1,1.6621967E-1,-5.075671E-1,-9.8344035E-2,-1.7933129E-1,3.3020055E-1,-3.267134E-1,-1.9101735E-2,-3.4004357E-1,1.8579425E-1,-2.9925989E-2,-3.3063927E-1,2.0508878E-2,3.339502E-1,1.4486627E-1,-2.6407692E-1],"categories":[],"categories_nodes":[],"categories_segments":[],"categories_sizes":[],"default_left":[0,0,0,0,0,0,0,0,0,0,0,0,0,0,0,0,0,0,0,0,0,0,0,0,0,0,0,0,0,0,0,0,0,0,0,0,0,0,0,0,0,0,0,0,0,0,0,0,0,0,0,0,0,0,0,0,0,0,0,0,0,0,0,0,0,0,0,0,0,0,0,0,0,0,0,0,0,0,0,0,0,0,0,0,0],"id":4,"left_children":[1,3,5,7,9,11,13,15,17,19,-1,21,23,25,27,29,31,33,-1,-1,35,37,39,41,43,45,47,-1,49,51,53,55,-1,-1,-1,57,-1,59,61,63,-1,65,67,69,71,73,75,77,79,81,83,-1,-1,-1,-1,-1,-1,-1,-1,-1,-1,-1,-1,-1,-1,-1,-1,-1,-1,-1,-1,-1,-1,-1,-1,-1,-1,-1,-1,-1,-1,-1,-1,-1,-1],"loss_changes":[4.1482742E2,1.1821289E1,3.8732947E2,5.673279E0,1.7367199E1,4.6543602E1,5.1287994E1,3.3125916E0,8.720087E0,8.948929E0,0E0,1.3065371E1,3.334381E1,7.7962036E0,6.0137568E0,1.7427368E0,3.7846143E0,8.524227E-1,0E0,0E0,3.1822205E0,7.235257E0,5.65473E0,1.3767807E1,2.000846E1,1.874578E1,6.650116E0,0E0,4.489979E0,1.9536319E0,4.9569702E-1,3.0673308E0,0E0,0E0,0E0,1.5508308E0,0E0,2.4416342E0,4.8761177E0,3.8571124E0,0E0,2.6132202E0,2.2595947E0,1.8407398E1,1.0629015E0,2.2989992E1,5.1595E0,4.8784485E0,7.3273497E0,1.1711063E0,2.7221153E0,0E0,0E0,0E0,0E0,0E0,0E0,0E0,0E0,0E0,0E0,0E0,0E0,0E0,0E0,0E0,0E0,0E0,0E0,0E0,0E0,0E0,0E0,0E0,0E0,0E0,0E0,0E0,0E0,0E0,0E0,0E0,0E0,0E0,0E0],"parents":[2147483647,0,0,1,1,2,2,3,3,4,4,5,5,6,6,7,7,8,8,9,9,11,11,12,12,13,13,14,14,15,15,16,16,17,17,20,20,21,21,22,22,23,23,24,24,25,25,26,26,28,28,29,29,30,30,31,31,35,35,37,37,38,38,39,39,41,41,42,42,43,43,44,44,45,45,46,46,47,47,48,48,49,49,50,50],"right_children":[2,4,6,8,10,12,14,16,18,20,-1,22,24,26,28,30,32,34,-1,-1,36,38,40,42,44,46,48,-1,50,52,54,56,-1,-1,-1,58,-1,60,62,64,-1,66,68,70,72,74,76,78,80,82,84,-1,-1,-1,-1,-1,-1,-1,-1,-1,-1,-1,-1,-1,-1,-1,-1,-1,-1,-1,-1,-1,-1,-1,-1,-1,-1,-1,-1,-1,-1,-1,-1,-1,-1],"split_conditions":[0E0,3E0,3.32668E-3,1.4E1,1E0,1E0,1E0,1E0,1E0,1.8333334E-1,3.3442932E-1,1E0,9.708738E-3,2E0,1E0,2E0,1.0169491E-1,2.8E1,3.0688974E-1,2.6428485E-1,1E0,1E0,5E0,2E0,5E0,1.9379845E-3,1.6E1,-2.872544E-1,1E0,8.666667E-1,3E0,9.74359E-1,3.121512E-1,-3.0220044E-1,-2.2553616E-4,1.05E2,5.9522387E-2,1.3636364E-1,1E0,1E0,-2.847392E-1,4E0,1E0,2E0,4E0,8.3870965E-1,1.724138E-1,3E0,2E0,2E0,3.4E1,5.7245184E-2,2.8587356E-1,3.336335E-1,8.828208E-2,-2.21755E-1,2.3203646E-1,-4.4395468E-1,-9.997212E-2,2.997312E-1,-1.378984E-1,-3.1651437E-1,-4.062346E-2,2.9623792E-1,-1.3362536E-1,3.3638903E-1,2.986344E-2,-4.4203085E-1,3.4270294E-2,-2.4325128E-1,1.6621967E-1,-5.075671E-1,-9.8344035E-2,-1.7933129E-1,3.3020055E-1,-3.267134E-1,-1.9101735E-2,-3.4004357E-1,1.8579425E-1,-2.9925989E-2,-3.3063927E-1,2.0508878E-2,3.339502E-1,1.4486627E-1,-2.6407692E-1],"split_indices":[47,4,26,22,5,29,34,38,24,26,0,34,27,13,29,2,33,21,0,0,26,14,4,11,4,33,13,0,30,27,8,26,0,0,0,3,0,27,39,39,0,4,15,2,2,27,33,5,4,2,21,0,0,0,0,0,0,0,0,0,0,0,0,0,0,0,0,0,0,0,0,0,0,0,0,0,0,0,0,0,0,0,0,0,0],"split_type":[0,0,0,0,0,0,0,0,0,0,0,0,0,0,0,0,0,0,0,0,0,0,0,0,0,0,0,0,0,0,0,0,0,0,0,0,0,0,0,0,0,0,0,0,0,0,0,0,0,0,0,0,0,0,0,0,0,0,0,0,0,0,0,0,0,0,0,0,0,0,0,0,0,0,0,0,0,0,0,0,0,0,0,0,0],"sum_hessian":[1.0775502E3,3.0502917E2,7.7252094E2,2.8134418E2,2.3684992E1,2.7967032E2,4.9285062E2,2.725325E2,8.811674E0,1.2000195E1,1.1684798E1,4.6655697E1,2.3301463E2,4.7298926E2,1.9861382E1,2.6542615E2,7.106383E0,3.9036088E0,4.908065E0,2.6086082E0,9.391585E0,3.4221527E1,1.2434171E1,1.342994E2,9.871525E1,1.49469E2,3.2352026E2,1.3570086E0,1.8504374E1,1.4582525E1,2.5084361E2,4.137443E0,2.9689398E0,2.8230002E0,1.0806087E0,7.756912E0,1.6346735E0,3.4906445E0,3.073088E1,1.0973895E1,1.4602758E0,1.3160432E2,2.695062E0,9.351745E1,5.1978E0,4.9630226E1,9.983877E1,2.9488855E2,2.8631693E1,1.4508253E1,3.9961197E0,6.1952043E0,8.3873205E0,2.492473E2,1.596316E0,3.0775037E0,1.0599393E0,5.4450555E0,2.3118567E0,2.4867654E0,1.003879E0,2.268095E1,8.049932E0,9.287034E0,1.6868606E0,1.2884334E2,2.7609882E0,1.5092188E0,1.185843E0,1.0301503E1,8.321594E1,3.911722E0,1.2860786E0,4.0739662E1,8.890562E0,9.453045E1,5.308319E0,2.938762E2,1.0123849E0,1.533258E1,1.3299112E1,1.3074296E0,1.3200824E1,2.3970377E0,1.599082E0],"tree_param":{"num_deleted":"0","num_feature":"48","num_nodes":"85","size_leaf_vector":"1"}},{"base_weights":[-1.5806707E-3,9.099357E-1,-3.49441E-1,9.665575E-1,2.60594E-1,4.6084955E-1,-8.384362E-1,2.6644617E-1,1.0030061E0,-4.419193E-1,3.122965E-1,8.1143206E-1,4.50803E-2,-9.0002775E-1,5.3746E-1,2.9327542E-1,-5.6162995E-1,6.3645667E-1,1.0525962E0,2.4026574E-1,-8.0922127E-1,9.7095877E-1,-6.1101783E-2,-2.2113834E-1,8.1908566E-1,-9.9877363E-1,-6.357276E-1,-2.54496E-1,6.9133085E-1,-3.0999E-1,2.0356995E-1,-2.9530606E-1,1.0101303E0,1.0619365E0,3.4204358E-1,-1.0507019E0,5.5061314E-2,1.0096807E0,-2.368538E-1,-5.6772053E-1,9.146021E-1,-4.55851E-1,9.425987E-1,3.4742743E-1,3.0111257E-2,-1.0221813E0,-2.9316074E-3,8.576563E-1,-8.203027E-1,9.4573003E-1,-1.2039841E-1,-3.6947364E-1,1.6902167E-1,3.1974182E-1,3.1363074E-2,3.2151216E-1,1.5786354E-1,-1.3209866E-1,2.3687497E-1,-3.578387E-1,-3.0469568E-2,3.215728E-1,-4.0845674E-2,-3.2367316E-1,1.1024799E-1,3.0550608E-1,3.4234382E-2,1.9870548E-1,-2.0675863E-1,-1.302186E-1,3.6096022E-1,-1.1141504E-1,2.8114906E-1,-3.0870467E-1,1.2066751E-1,-1.9089033E-1,2.735928E-1,-2.2115052E-1,4.8589793E-1,-2.9938042E-1,-1.0247676E-1,1.19227925E-2,3.1878528E-1,1.2227272E-1,-2.2678028E-1],"categories":[],"categories_nodes":[],"categories_segments":[],"categories_sizes":[],"default_left":[0,0,0,0,0,0,0,0,0,0,0,0,0,0,0,0,0,0,0,0,0,0,0,0,0,0,0,0,0,0,0,0,0,0,0,0,0,0,0,0,0,0,0,0,0,0,0,0,0,0,0,0,0,0,0,0,0,0,0,0,0,0,0,0,0,0,0,0,0,0,0,0,0,0,0,0,0,0,0,0,0,0,0,0,0],"id":5,"left_children":[1,3,5,7,9,11,13,15,17,19,-1,21,23,25,27,-1,29,31,33,-1,35,37,39,41,43,45,47,-1,49,-1,-1,51,53,55,57,59,-1,61,-1,63,65,67,69,-1,71,73,75,77,79,81,83,-1,-1,-1,-1,-1,-1,-1,-1,-1,-1,-1,-1,-1,-1,-1,-1,-1,-1,-1,-1,-1,-1,-1,-1,-1,-1,-1,-1,-1,-1,-1,-1,-1,-1],"loss_changes":[2.8052902E2,8.7330475E0,2.5410965E2,5.4591827E0,1.19561825E1,3.5185802E1,3.4355927E1,7.890259E0,3.2007446E0,6.0059843E0,0E0,1.8299187E1,2.3177576E1,9.359497E0,4.371754E0,0E0,4.441889E0,1.0014095E1,8.7142944E-1,0E0,2.4839983E0,8.353302E0,1.0996566E1,2.3327044E1,7.6614E0,6.4549255E0,3.0172596E1,0E0,3.5271354E0,0E0,0E0,7.737947E0,9.041977E-1,3.9471436E-1,1.7093298E0,9.3566513E-1,0E0,7.9107513E0,0E0,7.3613734E0,5.172415E-1,1.88344E1,5.6868477E0,0E0,3.871347E0,3.0488281E0,4.848266E0,1.6079746E1,7.793701E0,1.3024387E0,1.9291885E0,0E0,0E0,0E0,0E0,0E0,0E0,0E0,0E0,0E0,0E0,0E0,0E0,0E0,0E0,0E0,0E0,0E0,0E0,0E0,0E0,0E0,0E0,0E0,0E0,0E0,0E0,0E0,0E0,0E0,0E0,0E0,0E0,0E0,0E0],"parents":[2147483647,0,0,1,1,2,2,3,3,4,4,5,5,6,6,7,7,8,8,9,9,11,11,12,12,13,13,14,14,16,16,17,17,18,18,20,20,21,21,22,22,23,23,24,24,25,25,26,26,28,28,31,31,32,32,33,33,34,34,35,35,37,37,39,39,40,40,41,41,42,42,44,44,45,45,46,46,47,47,48,48,49,49,50,50],"right_children":[2,4,6,8,10,12,14,16,18,20,-1,22,24,26,28,-1,30,32,34,-1,36,38,40,42,44,46,48,-1,50,-1,-1,52,54,56,58,60,-1,62,-1,64,66,68,70,-1,72,74,76,78,80,82,84,-1,-1,-1,-1,-1,-1,-1,-1,-1,-1,-1,-1,-1,-1,-1,-1,-1,-1,-1,-1,-1,-1,-1,-1,-1,-1,-1,-1,-1,-1,-1,-1,-1,-1],"split_conditions":[0E0,3E0,3.32668E-3,1E0,1E0,9.708738E-3,1E0,1E0,1E0,1.8333334E-1,3.122965E-1,1E0,1E0,2E-1,1E0,2.9327542E-1,1E0,8.888889E-1,4E1,2.4026574E-1,8.2E1,1E0,1E0,1E0,8.3870965E-1,1E0,3.0303031E-2,-2.54496E-1,1E0,-3.0999E-1,2.0356995E-1,1.0169491E-1,1E0,2.4E1,6E0,1E0,5.5061314E-2,1.9379845E-3,-2.368538E-1,3.4E1,1.16E2,0E0,1.4E1,3.4742743E-1,2.4E1,1.9E2,1.6E1,1E0,8.5714287E-1,1.882353E-1,1E0,-3.6947364E-1,1.6902167E-1,3.1974182E-1,3.1363074E-2,3.2151216E-1,1.5786354E-1,-1.3209866E-1,2.3687497E-1,-3.578387E-1,-3.0469568E-2,3.215728E-1,-4.0845674E-2,-3.2367316E-1,1.1024799E-1,3.0550608E-1,3.4234382E-2,1.9870548E-1,-2.0675863E-1,-1.302186E-1,3.6096022E-1,-1.1141504E-1,2.8114906E-1,-3.0870467E-1,1.2066751E-1,-1.9089033E-1,2.735928E-1,-2.2115052E-1,4.8589793E-1,-2.9938042E-1,-1.0247676E-1,1.19227925E-2,3.1878528E-1,1.2227272E-1,-2.2678028E-1],"split_indices":[47,4,26,29,5,27,34,14,45,26,0,22,28,26,29,0,31,26,22,0,21,38,24,24,27,24,27,0,30,0,0,33,38,13,0,26,0,33,0,21,22,46,21,0,20,3,13,29,27,26,39,0,0,0,0,0,0,0,0,0,0,0,0,0,0,0,0,0,0,0,0,0,0,0,0,0,0,0,0,0,0,0,0,0,0],"split_type":[0,0,0,0,0,0,0,0,0,0,0,0,0,0,0,0,0,0,0,0,0,0,0,0,0,0,0,0,0,0,0,0,0,0,0,0,0,0,0,0,0,0,0,0,0,0,0,0,0,0,0,0,0,0,0,0,0,0,0,0,0,0,0,0,0,0,0,0,0,0,0,0,0,0,0,0,0,0,0,0,0,0,0,0,0],"sum_hessian":[8.8272235E2,2.4337596E2,6.3934644E2,2.2340668E2,1.9969292E1,2.406441E2,3.987023E2,1.1466476E1,2.119402E2,1.0737282E1,9.23201E0,1.300405E2,1.1060362E2,3.819503E2,1.675203E1,6.0716724E0,5.394804E0,2.6904919E1,1.8503528E2,2.1801293E0,8.557153E0,1.0984462E2,2.0195868E1,8.282895E1,2.777467E1,2.7603952E2,1.0591077E2,1.223134E0,1.5528895E1,4.029236E0,1.3655682E0,7.761409E0,1.914351E1,1.8214642E2,2.8888538E0,6.8359885E0,1.7211641E0,1.0789786E2,1.9467678E0,1.3568686E1,6.627182E0,6.943332E1,1.3395631E1,1.9099968E1,8.674701E0,2.6967426E2,6.36525E0,1.1249035E1,9.4661736E1,1.1697707E1,3.8311887E0,3.5052924E0,4.2561164E0,1.7868053E1,1.2754575E0,1.7790137E2,4.245056E0,1.0570571E0,1.8317966E0,5.722557E0,1.1134317E0,1.0240111E2,5.4967475E0,8.673875E0,4.8948107E0,5.6258473E0,1.0013348E0,1.1670235E1,5.7763084E1,2.026229E0,1.1369402E1,6.4224486E0,2.2522523E0,2.686628E2,1.0114492E0,3.9412987E0,2.4239514E0,3.6475453E0,7.601489E0,6.825161E1,2.6410128E1,1.4898659E0,1.0207841E1,2.2886076E0,1.542581E0],"tree_param":{"num_deleted":"0","num_feature":"48","num_nodes":"85","size_leaf_vector":"1"}},{"base_weights":[2.6197052E-3,8.468822E-1,-3.0521625E-1,2.304962E-1,9.0991277E-1,3.9772427E-1,-7.6192296E-1,-1.2282223E0,5.2784026E-1,9.461773E-1,4.3186933E-2,-1.2346043E-1,6.451862E-1,-8.191584E-1,4.6216315E-1,-4.302077E-1,-1.16112776E-1,8.02392E-1,-6.508281E-1,4.366195E-1,9.804286E-1,2.1240006E-1,-4.926682E-1,2.4735895E-1,-8.811467E-1,7.581628E-1,-2.838779E-1,-5.508288E-1,-9.487894E-1,7.552252E-1,-2.9912382E-1,9.291254E-1,1.07839614E-1,-2.3728353E-1,-5.116662E-2,-1.5240514E-1,7.9282904E-1,9.9601626E-1,3.12133E-3,-7.81606E-1,9.4652325E-2,-8.1937456E-1,5.4901046E-1,-1.1136684E0,2.7735826E-1,8.471636E-1,-2.9368907E-1,-7.6556385E-1,2.6593256E-1,-8.74587E-3,-8.7605214E-1,-1.012912E0,-3.7263712E-1,-8.371168E-2,9.3677765E-1,-2.1704951E-1,1.6801536E-1,6.991666E-2,2.9574537E-1,1.8297894E-1,-1.5231511E-1,-2.2142017E-1,1.5168603E-1,5.353768E-2,2.6469788E-1,3.165441E-1,2.3670635E-1,-1.5031281E-1,1.8599936E-1,-4.676826E-2,-2.9480246E-1,-3.241295E-1,3.1153318E-2,2.3997827E-1,-1.4374812E-1,-3.7119135E-1,1.7930067E-1,2.6680905E-1,-2.5712183E-1,-2.741489E-1,2.6356745E-1,-3.4623277E-1,2.2189961E-1,-1.5867636E-1,2.23204E-1,-2.8982037E-1,1.423955E-2,-3.0686292E-1,1.23597324E-1,2.5160393E-2,-2.977706E-1,9.990791E-2,2.981285E-1,2.0025857E-1,-1.2127235E-1],"categories":[],"categories_nodes":[],"categories_segments":[],"categories_sizes":[],"default_left":[0,0,0,0,0,0,0,0,0,0,0,0,0,0,0,0,0,0,0,0,0,0,0,0,0,0,0,0,0,0,0,0,0,0,0,0,0,0,0,0,0,0,0,0,0,0,0,0,0,0,0,0,0,0,0,0,0,0,0,0,0,0,0,0,0,0,0,0,0,0,0,0,0,0,0,0,0,0,0,0,0,0,0,0,0,0,0,0,0,0,0,0,0,0,0],"id":6,"left_children":[1,3,5,7,9,11,13,15,17,19,21,23,25,27,29,-1,-1,31,33,35,37,-1,39,41,43,45,47,49,51,53,55,57,59,-1,-1,61,63,65,67,69,-1,71,73,75,-1,77,79,81,-1,83,85,87,89,-1,91,-1,93,-1,-1,-1,-1,-1,-1,-1,-1,-1,-1,-1,-1,-1,-1,-1,-1,-1,-1,-1,-1,-1,-1,-1,-1,-1,-1,-1,-1,-1,-1,-1,-1,-1,-1,-1,-1,-1,-1],"loss_changes":[1.891473E2,7.345291E0,1.715221E2,9.054062E0,5.493576E0,2.7254314E1,2.305249E1,6.508398E-2,5.958021E0,2.520813E0,3.2412615E0,1.9512686E1,1.5227669E1,1.0244186E1,3.5937936E0,0E0,0E0,1.1384602E0,1.1581612E-1,2.731942E0,2.3964996E0,0E0,1.4340978E0,1.5537678E1,1.0595972E1,1.2212166E1,9.83035E0,1.8188322E1,7.2819977E0,2.3613372E0,1.0953615E0,2.3468494E-1,1.3304403E0,0E0,0E0,2.5037746E0,2.7780914E-1,1.0651245E0,1.391716E0,3.5428405E-1,0E0,2.70006E0,9.967705E0,5.106352E0,0E0,9.254425E0,8.590012E0,7.893705E0,0E0,1.5943595E1,5.4077377E0,3.0619965E0,6.4069567E0,0E0,4.2476654E-3,0E0,1.1702174E0,0E0,0E0,0E0,0E0,0E0,0E0,0E0,0E0,0E0,0E0,0E0,0E0,0E0,0E0,0E0,0E0,0E0,0E0,0E0,0E0,0E0,0E0,0E0,0E0,0E0,0E0,0E0,0E0,0E0,0E0,0E0,0E0,0E0,0E0,0E0,0E0,0E0,0E0],"parents":[2147483647,0,0,1,1,2,2,3,3,4,4,5,5,6,6,7,7,8,8,9,9,10,10,11,11,12,12,13,13,14,14,17,17,18,18,19,19,20,20,22,22,23,23,24,24,25,25,26,26,27,27,28,28,29,29,30,30,31,31,32,32,35,35,36,36,37,37,38,38,39,39,41,41,42,42,43,43,45,45,46,46,47,47,49,49,50,50,51,51,52,52,54,54,56,56],"right_children":[2,4,6,8,10,12,14,16,18,20,22,24,26,28,30,-1,-1,32,34,36,38,-1,40,42,44,46,48,50,52,54,56,58,60,-1,-1,62,64,66,68,70,-1,72,74,76,-1,78,80,82,-1,84,86,88,90,-1,92,-1,94,-1,-1,-1,-1,-1,-1,-1,-1,-1,-1,-1,-1,-1,-1,-1,-1,-1,-1,-1,-1,-1,-1,-1,-1,-1,-1,-1,-1,-1,-1,-1,-1,-1,-1,-1,-1,-1,-1],"split_conditions":[0E0,2E0,3.32668E-3,1E0,1E0,3E0,1E0,1E0,2E0,2E0,1.5E-1,1E0,3E0,2E0,1E0,-4.302077E-1,-1.16112776E-1,1E0,6E-2,8.333333E-1,3E0,2.1240006E-1,8.5714287E-1,1E0,7E0,1.9379845E-3,1.36E2,1.9379845E-3,1.6E1,2E0,9.375E-1,5E0,3.6585367E-1,-2.3728353E-1,-5.116662E-2,1E0,1E0,5E0,1E0,1E0,9.4652325E-2,1E0,2.6E1,5E0,2.7735826E-1,1E0,1.594203E-1,2E0,2.6593256E-1,1.9827586E-1,1.4473684E-1,3E0,2E0,-8.371168E-2,3E0,-2.1704951E-1,1.9379845E-3,6.991666E-2,2.9574537E-1,1.8297894E-1,-1.5231511E-1,-2.2142017E-1,1.5168603E-1,5.353768E-2,2.6469788E-1,3.165441E-1,2.3670635E-1,-1.5031281E-1,1.8599936E-1,-4.676826E-2,-2.9480246E-1,-3.241295E-1,3.1153318E-2,2.3997827E-1,-1.4374812E-1,-3.7119135E-1,1.7930067E-1,2.6680905E-1,-2.5712183E-1,-2.741489E-1,2.6356745E-1,-3.4623277E-1,2.2189961E-1,-1.5867636E-1,2.23204E-1,-2.8982037E-1,1.423955E-2,-3.0686292E-1,1.23597324E-1,2.5160393E-2,-2.977706E-1,9.990791E-2,2.981285E-1,2.0025857E-1,-1.2127235E-1],"split_indices":[47,0,26,45,38,2,34,30,4,2,27,22,4,13,1,0,0,28,33,26,8,0,27,29,0,33,3,33,13,0,27,21,27,0,0,15,29,13,4,34,0,40,21,8,0,38,33,5,0,26,33,5,4,0,2,0,33,0,0,0,0,0,0,0,0,0,0,0,0,0,0,0,0,0,0,0,0,0,0,0,0,0,0,0,0,0,0,0,0,0,0,0,0,0,0],"split_type":[0,0,0,0,0,0,0,0,0,0,0,0,0,0,0,0,0,0,0,0,0,0,0,0,0,0,0,0,0,0,0,0,0,0,0,0,0,0,0,0,0,0,0,0,0,0,0,0,0,0,0,0,0,0,0,0,0,0,0,0,0,0,0,0,0,0,0,0,0,0,0,0,0,0,0,0,0,0,0,0,0,0,0,0,0,0,0,0,0,0,0,0,0,0,0],"sum_hessian":[7.2579065E2,1.9346039E2,5.3233026E2,1.8379652E1,1.7508073E2,2.0969978E2,3.226305E2,2.5820282E0,1.5797625E1,1.6796143E2,7.119311E0,6.767312E1,1.4202667E2,3.085349E2,1.4095575E1,1.5082417E0,1.0737865E0,1.3071961E1,2.7256632E0,1.1444754E1,1.5651666E2,3.0339553E0,4.0853558E0,4.58884E1,2.1784716E1,1.2679234E2,1.5234327E1,1.0221153E2,2.0632338E2,1.0183383E1,3.9121923E0,1.0769197E1,2.302764E0,1.6092939E0,1.1163692E0,4.5285444E0,6.916209E0,1.5404063E2,2.476034E0,3.033647E0,1.0517085E0,9.737451E0,3.615095E1,1.9638988E1,2.1457274E0,1.1708037E2,9.711978E0,1.1037365E1,4.1969624E0,3.871244E1,6.349909E1,1.8497826E2,2.1345127E1,1.440457E0,8.742926E0,1.7623725E0,2.1498199E0,1.1959691E0,9.573229E0,1.2733078E0,1.029456E0,2.331659E0,2.1968856E0,1.2600915E0,5.656118E0,1.16627205E2,3.7413425E1,1.4658178E0,1.0102161E0,1.1695179E0,1.8641292E0,7.4582167E0,2.2792344E0,2.9237705E1,6.9132447E0,1.8574095E1,1.0648942E0,1.14717896E2,2.3624701E0,6.495947E0,3.2160306E0,8.958239E0,2.0791268E0,2.306873E1,1.564371E1,5.7817513E1,5.681575E0,1.8397386E2,1.0043913E0,1.2790887E1,8.554239E0,1.3442862E0,7.3986397E0,1.0589743E0,1.0908457E0],"tree_param":{"num_deleted":"0","num_feature":"48","num_nodes":"95","size_leaf_vector":"1"}},{"base_weights":[1.1469334E-3,7.7583027E-1,-2.6932746E-1,8.6107683E-1,2.2170135E-1,3.3437696E-1,-6.847368E-1,2.3857144E-1,9.116782E-1,-3.773774E-1,9.1492254E-1,6.777214E-1,-1.0768699E-2,-7.87796E-1,-2.3844166E-2,-2.411113E-1,6.589777E-1,9.323858E-1,-1.0647748E-1,-7.2505975E-1,1.968175E-1,5.3562563E-2,2.925313E-1,7.564709E-1,-8.05799E-1,-2.1609819E-1,6.856907E-1,-8.3677524E-1,-5.1516972E-2,1.0148605E0,-3.7407264E-1,-6.2821305E-1,1.9574858E-1,-1.8906526E-2,2.604927E-1,9.565227E-1,2.7775508E-1,-1.6965175E-1,1.24444656E-1,-1.0908159E0,1.4303613E-1,1.1764393E-1,9.069354E-1,-3.2471812E-1,3.3141043E-2,-3.8538277E-1,7.873425E-1,3.155251E-1,2.4727525E-2,-8.8575476E-1,-3.2850733E-1,5.026672E-1,-5.4130584E-1,-1.8668707E-1,1.3086323E0,2.5676307E-1,-7.3520327E-1,-2.759917E-1,5.2470606E-2,2.9453707E-1,1.5817352E-1,-1.19930714E-1,1.9012703E-1,-3.6985594E-1,-3.0181296E-2,-5.0734937E-2,2.7275178E-1,2.8214023E-1,-5.1207278E-2,-1.5584502E-1,2.4116004E-1,-1.06182374E-1,3.2459322E-1,1.3402618E-1,-2.064706E-1,-2.697004E-1,1.9198887E-1,5.2864145E-2,-2.9598522E-1,-1.7213514E-1,2.3142485E-1,-2.4200417E-1,1.8080206E-1,4.8495954E-1,2.2886178E-1,-1.8716209E-1,2.1038213E-1,5.254438E-2,-2.518259E-1],"categories":[],"categories_nodes":[],"categories_segments":[],"categories_sizes":[],"default_left":[0,0,0,0,0,0,0,0,0,0,0,0,0,0,0,0,0,0,0,0,0,0,0,0,0,0,0,0,0,0,0,0,0,0,0,0,0,0,0,0,0,0,0,0,0,0,0,0,0,0,0,0,0,0,0,0,0,0,0,0,0,0,0,0,0,0,0,0,0,0,0,0,0,0,0,0,0,0,0,0,0,0,0,0,0,0,0,0,0],"id":7,"left_children":[1,3,5,7,9,11,13,15,17,19,21,23,25,27,29,31,33,35,37,39,-1,-1,-1,41,43,45,47,49,51,53,55,57,-1,-1,-1,59,61,-1,-1,63,-1,65,67,-1,-1,69,71,-1,73,75,77,79,81,-1,83,85,87,-1,-1,-1,-1,-1,-1,-1,-1,-1,-1,-1,-1,-1,-1,-1,-1,-1,-1,-1,-1,-1,-1,-1,-1,-1,-1,-1,-1,-1,-1,-1,-1],"loss_changes":[1.2669898E2,7.2009506E0,1.12629585E2,4.0435333E0,9.569045E0,2.1736734E1,1.8087288E1,2.4827657E0,2.7294235E0,5.01089E0,2.951355E-1,1.1350353E1,1.33655615E1,8.249023E0,1.3800562E1,2.5250137E0,1.0233831E0,1.667778E0,1.0443588E0,4.880584E0,0E0,0E0,0E0,8.334576E0,1.4167902E0,1.2558056E1,5.123802E0,5.0746155E0,4.4542513E0,5.418003E0,6.6405964E0,1.2799611E0,0E0,0E0,0E0,7.57988E-1,1.6427827E0,0E0,0E0,9.88389E-1,0E0,4.2144713E0,2.7235413E0,0E0,0E0,1.0369084E1,3.9952493E0,0E0,2.898261E0,4.536545E0,6.994379E0,2.683838E0,3.1153553E0,0E0,1.8470669E-1,4.7636056E0,1.8802795E0,0E0,0E0,0E0,0E0,0E0,0E0,0E0,0E0,0E0,0E0,0E0,0E0,0E0,0E0,0E0,0E0,0E0,0E0,0E0,0E0,0E0,0E0,0E0,0E0,0E0,0E0,0E0,0E0,0E0,0E0,0E0,0E0],"parents":[2147483647,0,0,1,1,2,2,3,3,4,4,5,5,6,6,7,7,8,8,9,9,10,10,11,11,12,12,13,13,14,14,15,15,16,16,17,17,18,18,19,19,23,23,24,24,25,25,26,26,27,27,28,28,29,29,30,30,31,31,35,35,36,36,39,39,41,41,42,42,45,45,46,46,48,48,49,49,50,50,51,51,52,52,54,54,55,55,56,56],"right_children":[2,4,6,8,10,12,14,16,18,20,22,24,26,28,30,32,34,36,38,40,-1,-1,-1,42,44,46,48,50,52,54,56,58,-1,-1,-1,60,62,-1,-1,64,-1,66,68,-1,-1,70,72,-1,74,76,78,80,82,-1,84,86,88,-1,-1,-1,-1,-1,-1,-1,-1,-1,-1,-1,-1,-1,-1,-1,-1,-1,-1,-1,-1,-1,-1,-1,-1,-1,-1,-1,-1,-1,-1,-1,-1],"split_conditions":[0E0,2E0,3.32668E-3,2E0,1E0,9.708738E-3,3.75E-1,8.333333E-1,3E0,7.8947365E-2,1.7E1,3E0,1E0,1E0,3.7857142E-1,9.3333334E-1,1E0,1E0,4E0,9.883721E-1,1.968175E-1,5.3562563E-2,2.925313E-1,1E0,5E0,1E0,8.3870965E-1,1E0,2E0,3E0,1E0,8.888889E-1,1.9574858E-1,-1.8906526E-2,2.604927E-1,1E0,1.9E1,-1.6965175E-1,1.24444656E-1,1E0,1.4303613E-1,1E0,4E0,-3.2471812E-1,3.3141043E-2,9.411765E-1,1.4E1,3.155251E-1,3E0,1.99E2,2E0,2.877698E-2,1.6E1,-1.8668707E-1,1E0,1E0,9.708738E-3,-2.759917E-1,5.2470606E-2,2.9453707E-1,1.5817352E-1,-1.19930714E-1,1.9012703E-1,-3.6985594E-1,-3.0181296E-2,-5.0734937E-2,2.7275178E-1,2.8214023E-1,-5.1207278E-2,-1.5584502E-1,2.4116004E-1,-1.06182374E-1,3.2459322E-1,1.3402618E-1,-2.064706E-1,-2.697004E-1,1.9198887E-1,5.2864145E-2,-2.9598522E-1,-1.7213514E-1,2.3142485E-1,-2.4200417E-1,1.8080206E-1,4.8495954E-1,2.2886178E-1,-1.8716209E-1,2.1038213E-1,5.254438E-2,-2.518259E-1],"split_indices":[47,4,26,2,5,27,26,26,8,33,20,10,28,5,26,33,29,38,0,27,0,0,0,29,0,24,27,27,13,2,13,27,0,0,0,8,21,0,0,26,0,34,4,0,0,27,21,0,4,3,4,26,13,0,8,29,27,0,0,0,0,0,0,0,0,0,0,0,0,0,0,0,0,0,0,0,0,0,0,0,0,0,0,0,0,0,0,0,0],"split_type":[0,0,0,0,0,0,0,0,0,0,0,0,0,0,0,0,0,0,0,0,0,0,0,0,0,0,0,0,0,0,0,0,0,0,0,0,0,0,0,0,0,0,0,0,0,0,0,0,0,0,0,0,0,0,0,0,0,0,0,0,0,0,0,0,0,0,0,0,0,0,0,0,0,0,0,0,0,0,0,0,0,0,0,0,0,0,0,0,0],"sum_hessian":[6.026788E2,1.5548257E2,4.4719617E2,1.3427235E2,2.1210224E1,1.8236482E2,2.6483136E2,1.0523654E1,1.23748695E2,1.1622086E1,9.588139E0,9.093791E1,9.142691E1,2.2893877E2,3.5892586E1,5.1145E0,5.409154E0,1.21364586E2,2.384112E0,8.919624E0,2.7024612E0,1.0240943E0,8.564044E0,8.6819374E1,4.11854E0,7.114247E1,2.0284435E1,2.145311E2,1.4407676E1,8.572028E0,2.7320559E1,3.7758355E0,1.3386642E0,1.37289E0,4.036264E0,1.166041E2,4.7604804E0,1.2226685E0,1.1614434E0,6.9093084E0,2.0103154E0,1.6890265E1,6.992911E1,3.0242903E0,1.0942494E0,6.139998E1,9.742493E0,1.2673991E1,7.610445E0,1.9499738E2,1.953372E1,6.7471485E0,7.660527E0,1.1340182E0,7.4380097E0,1.0051408E1,1.726915E1,2.6629295E0,1.1129061E0,1.0890673E2,7.697371E0,1.5974171E0,3.1630633E0,5.8282566E0,1.0810522E0,1.2975687E1,3.914578E0,6.794227E1,1.986845E0,5.5684177E1,5.7158017E0,1.9577518E0,7.784741E0,5.015178E0,2.5952668E0,1.9372618E2,1.2711979E0,1.1469622E1,8.064099E0,1.121212E0,5.6259365E0,6.457415E0,1.2031122E0,3.5009217E0,3.9370883E0,3.2363155E0,6.815092E0,1.7039727E0,1.5565178E1],"tree_param":{"num_deleted":"0","num_feature":"48","num_nodes":"89","size_leaf_vector":"1"}},{"base_weights":[5.7126475E-3,7.1486783E-1,-2.2723883E-1,-1.255303E-1,7.757284E-1,2.8428388E-1,-6.0376275E-1,2.4083415E-1,-6.965803E-1,1.9211937E-1,8.837662E-1,4.774978E-1,-2.2545436E-1,-3.7958527E-1,-9.175243E-1,-2.8834775E-1,-2.0452878E-2,6.246024E-1,-7.085227E-1,9.096288E-1,1.6169538E-1,6.663538E-1,-5.083267E-1,-6.801528E-1,6.059194E-1,-6.742745E-1,2.1386138E-1,-9.6431553E-1,5.2327454E-1,-2.9205358E-1,8.6012733E-1,-1.2867296E0,2.2494219E-1,9.2616457E-1,-3.631976E-2,2.2765721E-1,-1.5353687E-1,7.7626646E-1,-4.167943E-1,-7.494868E-1,2.7360508E-1,-9.139509E-1,5.9575814E-1,7.722697E-1,-2.5042754E-1,-5.197679E-3,-8.07298E-1,-9.310819E-1,5.8009166E-1,-1.0063807E0,-1.4935155E-1,2.8979552E-1,-2.1520255E-2,5.69817E-2,2.8555092E-1,-4.6782342E-1,-8.990271E-2,1.4625624E-1,2.8414497E-1,2.800458E-1,6.124126E-2,8.7733015E-2,-2.3143116E-1,-2.5943613E-1,1.354153E-1,-3.3044794E-1,1.9839151E-1,2.2822028E-1,-1.1593203E-2,2.7007714E-1,-1.235055E-1,-1.0318547E-1,4.270524E-1,-2.6698315E-1,1.216041E-1,-3.0343205E-1,-1.8410169E-2,2.698993E-1,-1.7292066E-1,1.0228411E-1,-3.086711E-1,3.3049166E-1,-2.3361143E-1],"categories":[],"categories_nodes":[],"categories_segments":[],"categories_sizes":[],"default_left":[0,0,0,0,0,0,0,0,0,0,0,0,0,0,0,0,0,0,0,0,0,0,0,0,0,0,0,0,0,0,0,0,0,0,0,0,0,0,0,0,0,0,0,0,0,0,0,0,0,0,0,0,0,0,0,0,0,0,0,0,0,0,0,0,0,0,0,0,0,0,0,0,0,0,0,0,0,0,0,0,0,0,0],"id":8,"left_children":[1,3,5,7,9,11,13,-1,15,17,19,21,23,25,27,-1,-1,29,31,33,35,37,39,41,43,45,47,49,51,-1,53,55,-1,57,-1,-1,-1,59,61,63,-1,65,67,69,-1,71,73,75,77,79,81,-1,-1,-1,-1,-1,-1,-1,-1,-1,-1,-1,-1,-1,-1,-1,-1,-1,-1,-1,-1,-1,-1,-1,-1,-1,-1,-1,-1,-1,-1,-1,-1],"loss_changes":[8.43002E1,6.5509644E0,7.415629E1,5.5323186E0,7.2574615E0,1.6215431E1,1.5237648E1,0E0,9.89192E-1,8.107336E0,1.7039108E0,2.2478584E1,1.7662386E1,2.3044838E1,6.682434E0,0E0,0E0,6.0412493E0,6.742766E0,1.7393265E0,2.2559223E0,1.2256245E1,7.4265375E0,9.484749E0,4.6379623E0,7.80492E0,1.9077463E1,2.904396E0,9.993159E-1,0E0,5.924473E-1,9.524536E-1,0E0,4.0428162E-1,0E0,0E0,0E0,8.026058E0,2.711842E0,2.796442E0,0E0,8.327827E0,5.7851803E-1,2.7128706E0,0E0,8.019191E0,7.695072E0,7.135439E-1,1.3125465E1,2.9167862E0,5.225725E0,0E0,0E0,0E0,0E0,0E0,0E0,0E0,0E0,0E0,0E0,0E0,0E0,0E0,0E0,0E0,0E0,0E0,0E0,0E0,0E0,0E0,0E0,0E0,0E0,0E0,0E0,0E0,0E0,0E0,0E0,0E0,0E0],"parents":[2147483647,0,0,1,1,2,2,3,3,4,4,5,5,6,6,8,8,9,9,10,10,11,11,12,12,13,13,14,14,17,17,18,18,19,19,20,20,21,21,22,22,23,23,24,24,25,25,26,26,27,27,28,28,30,30,31,31,33,33,37,37,38,38,39,39,41,41,42,42,43,43,45,45,46,46,47,47,48,48,49,49,50,50],"right_children":[2,4,6,8,10,12,14,-1,16,18,20,22,24,26,28,-1,-1,30,32,34,36,38,40,42,44,46,48,50,52,-1,54,56,-1,58,-1,-1,-1,60,62,64,-1,66,68,70,-1,72,74,76,78,80,82,-1,-1,-1,-1,-1,-1,-1,-1,-1,-1,-1,-1,-1,-1,-1,-1,-1,-1,-1,-1,-1,-1,-1,-1,-1,-1,-1,-1,-1,-1,-1,-1],"split_conditions":[0E0,1E0,3.32668E-3,1E0,1E0,3E0,1E0,2.4083415E-1,3E0,5E0,1E0,1.9379845E-3,1.28E2,2E-1,1E0,-2.8834775E-1,-2.0452878E-2,2E0,1.6E1,8.3E1,1.5E-1,1E0,2.8715366E-1,1E0,1E0,0E0,1E0,5E-1,1.2643678E-1,-2.9205358E-1,2E0,9.230769E-1,2.2494219E-1,2E0,-3.631976E-2,2.2765721E-1,-1.5353687E-1,2.0212767E-1,1E0,2E0,2.7360508E-1,3E0,3.6E1,2E0,-2.5042754E-1,5E0,1E0,8.928572E-2,3E0,2.7027028E-2,5.013405E-1,2.8979552E-1,-2.1520255E-2,5.69817E-2,2.8555092E-1,-4.6782342E-1,-8.990271E-2,1.4625624E-1,2.8414497E-1,2.800458E-1,6.124126E-2,8.7733015E-2,-2.3143116E-1,-2.5943613E-1,1.354153E-1,-3.3044794E-1,1.9839151E-1,2.2822028E-1,-1.1593203E-2,2.7007714E-1,-1.235055E-1,-1.0318547E-1,4.270524E-1,-2.6698315E-1,1.216041E-1,-3.0343205E-1,-1.8410169E-2,2.698993E-1,-1.7292066E-1,1.0228411E-1,-3.086711E-1,3.3049166E-1,-2.3361143E-1],"split_indices":[47,29,26,14,45,22,39,0,0,13,38,33,3,26,24,0,0,0,13,22,27,8,33,28,9,46,29,26,27,0,2,26,0,2,0,0,0,27,1,1,0,8,22,1,0,2,28,33,4,27,26,0,0,0,0,0,0,0,0,0,0,0,0,0,0,0,0,0,0,0,0,0,0,0,0,0,0,0,0,0,0,0,0],"split_type":[0,0,0,0,0,0,0,0,0,0,0,0,0,0,0,0,0,0,0,0,0,0,0,0,0,0,0,0,0,0,0,0,0,0,0,0,0,0,0,0,0,0,0,0,0,0,0,0,0,0,0,0,0,0,0,0,0,0,0,0,0,0,0,0,0,0,0,0,0,0,0,0,0,0,0,0,0,0,0,0,0,0,0],"sum_hessian":[5.0831232E2,1.2517711E2,3.831352E2,8.381261E0,1.1679585E2,1.625498E2,2.2058539E2,3.0375535E0,5.3437076E0,1.8677914E1,9.8117935E1,1.1791712E2,4.4632687E1,1.2994884E2,9.063654E1,3.3878055E0,1.955902E0,1.2825619E1,5.8522944E0,9.447437E1,3.643565E0,9.9231285E1,1.8685835E1,2.897012E1,1.5662567E1,8.673997E1,4.3208874E1,8.8105934E1,2.5306113E0,1.2449375E0,1.1580681E1,4.274991E0,1.5773033E0,9.3082436E1,1.3919356E0,1.864022E0,1.779543E0,9.0346664E1,8.884623E0,1.6377432E1,2.3084037E0,2.4723475E1,4.246646E0,1.4457196E1,1.2053707E0,1.4557627E1,7.218234E1,1.0097812E1,3.311106E1,8.355812E1,4.5478106E0,1.093513E0,1.4370984E0,1.7636251E0,9.817056E0,2.8952813E0,1.3797097E0,5.3561945E0,8.772624E1,7.037594E1,1.9970724E1,3.0201392E0,5.864483E0,1.5198073E1,1.179358E0,2.2361927E1,2.3615475E0,3.2121828E0,1.0344632E0,1.3263058E1,1.1941389E0,1.2381227E1,2.1763995E0,6.78259E1,4.356447E0,9.094553E0,1.0032582E0,2.6116417E1,6.994645E0,1.1414045E0,8.241672E1,1.2709877E0,3.2768228E0],"tree_param":{"num_deleted":"0","num_feature":"48","num_nodes":"83","size_leaf_vector":"1"}},{"base_weights":[4.2931195E-3,1.9044977E-1,-7.0565456E-1,-5.5496895E-1,3.395687E-1,-8.601214E-1,8.732982E-1,-7.867506E-1,3.884362E-1,4.5443884E-1,-6.826825E-1,-9.547988E-1,4.1991562E-1,9.903894E-1,3.7553913E-3,-8.677275E-1,5.382476E-1,7.0050293E-1,-5.327124E-1,-2.8263822E-1,5.641364E-1,-8.52758E-1,5.992033E-1,-9.873461E-1,1.7532398E-1,9.9063253E-1,-3.5916772E-1,9.054862E-2,3.2137477E-1,-9.4427717E-1,-3.6427077E-2,2.1133573E-1,2.7275981E-2,8.489635E-1,-6.5638974E-2,-2.9348257E-1,4.663714E-2,3.417802E-1,-5.0332326E-1,6.832283E-1,8.941357E-2,-9.616844E-1,3.0729896E-1,3.3831453E-1,-8.7831736E-2,-1.0200788E0,-9.2993826E-2,3.5319337E-1,9.8577075E-2,-2.0674586E-1,6.6023104E-2,-3.0131963E-1,-9.121636E-2,-1.4703515E-1,8.86441E-2,5.5301394E-2,2.9569986E-1,2.290789E-3,-2.4523094E-1,2.6571965E-1,1.0203099E-1,7.525887E-2,-4.1658956E-1,-2.9830533E-1,-3.6594156E-2,-4.049381E-2,1.7905965E-1,-3.1064644E-1,-4.4815745E-3,1.6883446E-1,-1.6681826E-1],"categories":[],"categories_nodes":[],"categories_segments":[],"categories_sizes":[],"default_left":[0,0,0,0,0,0,0,0,0,0,0,0,0,0,0,0,0,0,0,0,0,0,0,0,0,0,0,0,0,0,0,0,0,0,0,0,0,0,0,0,0,0,0,0,0,0,0,0,0,0,0,0,0,0,0,0,0,0,0,0,0,0,0,0,0,0,0,0,0,0,0],"id":9,"left_children":[1,3,5,7,9,11,13,15,17,19,21,23,25,27,-1,29,31,33,35,37,39,41,43,45,-1,47,49,-1,-1,51,53,-1,-1,55,-1,-1,-1,-1,57,59,61,63,65,-1,-1,67,69,-1,-1,-1,-1,-1,-1,-1,-1,-1,-1,-1,-1,-1,-1,-1,-1,-1,-1,-1,-1,-1,-1,-1,-1],"loss_changes":[5.7156406E1,3.8272034E1,2.2663578E1,1.2877277E1,3.3908276E1,1.0379906E1,8.44542E-1,5.45455E0,3.825219E0,2.1005432E1,6.8995543E0,4.433296E0,3.1861005E0,9.264946E-2,0E0,2.7776642E0,1.8088526E-1,1.4689245E0,1.2580299E0,1.1263049E1,1.2645386E1,3.6167107E0,2.2251441E0,2.122795E0,0E0,1.001029E-1,8.063885E-1,0E0,0E0,1.2505608E0,8.625295E-1,0E0,0E0,5.723748E-1,0E0,0E0,0E0,0E0,4.8505225E0,1.2172989E1,1.13791065E1,5.4442406E-1,4.6655628E-1,0E0,0E0,1.1148682E0,1.4592713E0,0E0,0E0,0E0,0E0,0E0,0E0,0E0,0E0,0E0,0E0,0E0,0E0,0E0,0E0,0E0,0E0,0E0,0E0,0E0,0E0,0E0,0E0,0E0,0E0],"parents":[2147483647,0,0,1,1,2,2,3,3,4,4,5,5,6,6,7,7,8,8,9,9,10,10,11,11,12,12,13,13,15,15,16,16,17,17,18,18,19,19,20,20,21,21,22,22,23,23,25,25,26,26,29,29,30,30,33,33,38,38,39,39,40,40,41,41,42,42,45,45,46,46],"right_children":[2,4,6,8,10,12,14,16,18,20,22,24,26,28,-1,30,32,34,36,38,40,42,44,46,-1,48,50,-1,-1,52,54,-1,-1,56,-1,-1,-1,-1,58,60,62,64,66,-1,-1,68,70,-1,-1,-1,-1,-1,-1,-1,-1,-1,-1,-1,-1,-1,-1,-1,-1,-1,-1,-1,-1,-1,-1,-1,-1],"split_conditions":[3E0,2E0,2E0,1E0,1E0,1.49E2,6E0,1E0,5.2E1,1E0,2.8E1,5.625E-1,1.8181819E-1,1E0,3.7553913E-3,1E0,1.8E1,3E0,9.1525424E-1,1E0,1E0,8.666667E-1,9.708738E-3,1E0,1.7532398E-1,1E0,3.6363637E-1,9.054862E-2,3.2137477E-1,1E0,1E0,2.1133573E-1,2.7275981E-2,1E0,-6.5638974E-2,-2.9348257E-1,4.663714E-2,3.417802E-1,9.708738E-3,1.9379845E-3,1E0,2.5E-1,2.7E1,3.3831453E-1,-8.7831736E-2,1E0,1.2643678E-1,3.5319337E-1,9.8577075E-2,-2.0674586E-1,6.6023104E-2,-3.0131963E-1,-9.121636E-2,-1.4703515E-1,8.86441E-2,5.5301394E-2,2.9569986E-1,2.290789E-3,-2.4523094E-1,2.6571965E-1,1.0203099E-1,7.525887E-2,-4.1658956E-1,-2.9830533E-1,-3.6594156E-2,-4.049381E-2,1.7905965E-1,-3.1064644E-1,-4.4815745E-3,1.6883446E-1,-1.6681826E-1],"split_indices":[4,2,5,34,38,3,4,24,3,29,20,33,27,15,0,5,20,13,27,14,10,26,27,24,0,46,26,0,0,18,29,0,0,29,0,0,0,0,27,33,9,33,21,0,0,26,27,0,0,0,0,0,0,0,0,0,0,0,0,0,0,0,0,0,0,0,0,0,0,0,0],"split_type":[0,0,0,0,0,0,0,0,0,0,0,0,0,0,0,0,0,0,0,0,0,0,0,0,0,0,0,0,0,0,0,0,0,0,0,0,0,0,0,0,0,0,0,0,0,0,0,0,0,0,0,0,0,0,0,0,0,0,0,0,0,0,0,0,0,0,0,0,0,0,0],"sum_hessian":[4.3045712E2,3.4161374E2,8.884341E1,5.649312E1,2.851206E2,8.134116E1,7.502241E0,4.5484303E1,1.1008816E1,2.5681754E2,2.8303076E1,7.597574E1,5.3654256E0,6.4713736E0,1.0308673E0,4.3189877E1,2.2944267E0,8.401939E0,2.6068761E0,3.3065838E1,2.237517E2,2.5283346E1,3.0197306E0,7.475358E1,1.2221609E0,2.9401126E0,2.4253132E0,1.177461E0,5.2939124E0,3.942367E1,3.766202E0,1.2537816E0,1.040645E0,7.299613E0,1.1023268E0,1.3264744E0,1.2804017E0,3.8832278E0,2.9182611E1,1.7852626E2,4.5225433E1,2.326941E1,2.0139363E0,1.7302419E0,1.2894887E0,7.197863E1,2.774948E0,1.6863137E0,1.2537987E0,1.4242182E0,1.0010949E0,3.5519325E1,3.9043462E0,1.3897965E0,2.3764055E0,1.6459138E0,5.653699E0,1.1481563E1,1.7701048E1,1.1127385E2,6.72524E1,4.152037E1,3.7050645E0,2.2220795E1,1.0486149E0,1.0080768E0,1.0058596E0,7.086208E1,1.1165448E0,1.0593739E0,1.7155739E0],"tree_param":{"num_deleted":"0","num_feature":"48","num_nodes":"71","size_leaf_vector":"1"}},{"base_weights":[3.7747354E-4,6.204252E-1,-1.8964742E-1,4.3248162E-1,3.0261266E-1,3.896329E-1,-3.909957E-1,-3.9322898E-1,7.9027975E-1,8.0669713E-1,-1.6308155E-2,-2.1695216E-1,-8.7277114E-1,-1.2745224E0,3.486944E-1,9.432841E-1,2.3947868E-1,-2.443021E-1,8.8754153E-1,-2.5682765E-1,8.662087E-1,4.4286644E-1,-4.1796E-1,-9.296718E-1,1.943311E-1,-1.8553711E0,-3.1798595E-1,6.570117E-1,-3.784157E-1,8.3521344E-2,2.9185244E-1,-2.993754E-1,6.565648E-1,9.531632E-1,5.5073686E-2,-7.5956327E-1,1.04277745E-1,2.986187E-1,-3.5711518E-4,7.2165114E-1,-5.591261E-1,-5.513842E-1,7.789879E-1,-9.84101E-1,1.5170419E-1,-8.518977E-2,-6.4597696E-1,1.455554E-1,-2.0897247E-1,-8.793305E-2,2.4920286E-1,-3.020991E-1,1.5396997E-1,-2.2873493E-1,7.379348E-2,2.455123E-1,-1.4037437E-2,3.0863708E-1,1.5543465E-2,-7.839437E-2,1.1657585E-1,1.4419429E-1,-2.822292E-1,-1.4719111E-2,2.7441266E-1,2.646792E-1,-2.1481326E-1,-1.7257268E-3,-2.2343466E-1,-1.9637702E-1,6.2322073E-2,4.0599987E-1,-1.60605E-1,-3.091951E-1,1.2051435E-1],"categories":[],"categories_nodes":[],"categories_segments":[],"categories_sizes":[],"default_left":[0,0,0,0,0,0,0,0,0,0,0,0,0,0,0,0,0,0,0,0,0,0,0,0,0,0,0,0,0,0,0,0,0,0,0,0,0,0,0,0,0,0,0,0,0,0,0,0,0,0,0,0,0,0,0,0,0,0,0,0,0,0,0,0,0,0,0,0,0,0,0,0,0,0,0],"id":10,"left_children":[1,3,5,7,-1,9,11,13,15,17,19,21,23,25,27,29,31,-1,33,35,37,39,41,43,-1,45,47,49,51,-1,-1,53,55,57,59,61,63,-1,-1,65,67,69,71,73,-1,-1,-1,-1,-1,-1,-1,-1,-1,-1,-1,-1,-1,-1,-1,-1,-1,-1,-1,-1,-1,-1,-1,-1,-1,-1,-1,-1,-1,-1,-1],"loss_changes":[4.4641914E1,6.0496445E0,3.3978092E1,1.8521456E1,0E0,1.276222E1,1.789753E1,1.3065497E1,3.4263344E0,5.59297E0,8.530541E0,2.1378048E1,5.5263863E0,4.431267E0,2.774057E0,3.8898277E-1,2.6152039E0,0E0,1.9073162E0,5.803031E0,9.661474E-1,1.09619255E1,2.0071856E1,4.8157387E0,0E0,1.9238338E0,1.7431849E0,1.6090786E0,2.7525218E0,0E0,0E0,1.5467628E0,7.6432586E-1,2.209341E0,4.9013814E-1,3.4411874E0,2.434462E0,0E0,0E0,7.56071E0,8.988607E-1,8.851528E0,1.0348978E1,3.8711433E0,0E0,0E0,0E0,0E0,0E0,0E0,0E0,0E0,0E0,0E0,0E0,0E0,0E0,0E0,0E0,0E0,0E0,0E0,0E0,0E0,0E0,0E0,0E0,0E0,0E0,0E0,0E0,0E0,0E0,0E0,0E0],"parents":[2147483647,0,0,1,1,2,2,3,3,5,5,6,6,7,7,8,8,9,9,10,10,11,11,12,12,13,13,14,14,15,15,16,16,18,18,19,19,20,20,21,21,22,22,23,23,25,25,26,26,27,27,28,28,31,31,32,32,33,33,34,34,35,35,36,36,39,39,40,40,41,41,42,42,43,43],"right_children":[2,4,6,8,-1,10,12,14,16,18,20,22,24,26,28,30,32,-1,34,36,38,40,42,44,-1,46,48,50,52,-1,-1,54,56,58,60,62,64,-1,-1,66,68,70,72,74,-1,-1,-1,-1,-1,-1,-1,-1,-1,-1,-1,-1,-1,-1,-1,-1,-1,-1,-1,-1,-1,-1,-1,-1,-1,-1,-1,-1,-1,-1,-1],"split_conditions":[0E0,9.3333334E-1,9.708738E-3,8.333333E-1,3.0261266E-1,2E0,3E0,7.8947365E-2,5E0,1E0,1E0,0E0,1.87E2,3E0,7.3333335E-1,1E0,1.1E1,-2.443021E-1,8.9E1,3E0,1.35E2,1E0,1E0,3E0,1.943311E-1,1.2E1,5.6E1,6E0,5.2910054E-1,8.3521344E-2,2.9185244E-1,9.6039605E-1,2.2E1,1E0,1E0,7E0,3.2258064E-1,2.986187E-1,-3.5711518E-4,1E0,2E0,1.7E1,6.785714E-1,7E0,1.5170419E-1,-8.518977E-2,-6.4597696E-1,1.455554E-1,-2.0897247E-1,-8.793305E-2,2.4920286E-1,-3.020991E-1,1.5396997E-1,-2.2873493E-1,7.379348E-2,2.455123E-1,-1.4037437E-2,3.0863708E-1,1.5543465E-2,-7.839437E-2,1.1657585E-1,1.4419429E-1,-2.822292E-1,-1.4719111E-2,2.7441266E-1,2.646792E-1,-2.1481326E-1,-1.7257268E-3,-2.2343466E-1,-1.9637702E-1,6.2322073E-2,4.0599987E-1,-1.60605E-1,-3.091951E-1,1.2051435E-1],"split_indices":[47,33,27,26,0,13,4,33,13,2,24,46,3,0,27,29,13,0,3,2,22,39,28,5,0,21,3,21,26,0,0,27,20,8,30,21,26,0,0,38,2,13,27,2,0,0,0,0,0,0,0,0,0,0,0,0,0,0,0,0,0,0,0,0,0,0,0,0,0,0,0,0,0,0,0],"split_type":[0,0,0,0,0,0,0,0,0,0,0,0,0,0,0,0,0,0,0,0,0,0,0,0,0,0,0,0,0,0,0,0,0,0,0,0,0,0,0,0,0,0,0,0,0,0,0,0,0,0,0,0,0,0,0,0,0,0,0,0,0,0,0,0,0,0,0,0,0,0,0,0,0,0,0],"sum_hessian":[3.7688617E2,8.787775E1,2.8900845E2,6.0639713E1,2.7238031E1,7.4303024E1,2.1470541E2,1.8302649E1,4.2337063E1,3.616246E1,3.8140568E1,1.5879156E2,5.591385E1,8.037476E0,1.0265174E1,3.2575504E1,9.761558E0,1.286832E0,3.4875626E1,3.0529184E1,7.611384E0,3.679776E1,1.219938E2,5.427153E1,1.6423209E0,4.4161367E0,3.6213384E0,7.2762327E0,2.9889414E0,1.8299836E0,3.0745523E1,4.3821993E0,5.379358E0,3.219294E1,2.682686E0,1.2300637E1,1.8228548E1,6.4962893E0,1.1150947E0,2.9006937E1,7.790825E0,1.1024418E2,1.1749617E1,5.2591614E1,1.679914E0,1.0150123E0,3.4011245E0,1.0699325E0,2.551406E0,1.0181454E0,6.258087E0,1.6772054E0,1.3117359E0,2.1545935E0,2.2276058E0,4.2403283E0,1.1390297E0,2.9570475E1,2.6224666E0,1.4877768E0,1.1949092E0,1.3574083E0,1.0943229E1,1.6118273E1,2.1102743E0,2.6439564E1,2.567373E0,2.2161796E0,5.574645E0,9.7171104E1,1.307308E1,8.155933E0,3.5936837E0,5.1130444E1,1.4611726E0],"tree_param":{"num_deleted":"0","num_feature":"48","num_nodes":"75","size_leaf_vector":"1"}},{"base_weights":[3.5974595E-3,5.6170964E-1,-1.5410347E-1,3.6150917E-1,9.5731354E-1,5.2345723E-2,-6.259096E-1,-4.840437E-1,7.246629E-1,7.071174E-2,2.960971E-1,3.3236796E-1,-3.2311305E-1,-7.642456E-1,3.4894887E-1,-1.0697801E0,2.838902E-1,8.933144E-1,1.9996744E-1,-3.684369E-1,5.2338386E-1,-5.607877E-1,3.3867708E-1,-8.532953E-1,4.3670648E-1,-2.670086E-1,9.935696E-1,-1.5424099E0,-2.9062483E-1,-2.3733865E-1,2.4410532E-1,6.866907E-2,9.320662E-1,-1.0914185E-1,2.3115155E-1,1.7297894E-1,-7.91542E-1,6.7057556E-1,-4.4463623E-1,5.1435065E-1,-6.823168E-1,5.931772E-1,-2.7412012E-1,-8.8417053E-1,1.4787975E-1,1.3043902E0,-1.712525E-1,1.09271914E-1,-5.996579E-1,4.307721E-1,2.3905826E-1,-6.910945E-2,-5.37144E-1,-3.202689E-1,1.16304494E-1,-2.2416003E-1,9.5837064E-2,2.874347E-1,7.925901E-2,-1.1858242E-1,1.8733752E-1,-6.0737588E-2,2.3453315E-1,-2.6855454E-1,1.7345432E-2,2.2379264E-1,-2.533253E-1,-2.0846097E-1,2.0446244E-1,4.537262E-1,-1.24751695E-1,-2.3846175E-1,1.8454042E-1,2.3798348E-1,-1.7160977E-1,-2.97637E-1,-1.7592917E-1,4.761324E-1,1.3469967E-1,-1.2992785E-2,-2.3143573E-1,-1.00226E-1,2.1440007E-1],"categories":[],"categories_nodes":[],"categories_segments":[],"categories_sizes":[],"default_left":[0,0,0,0,0,0,0,0,0,0,0,0,0,0,0,0,0,0,0,0,0,0,0,0,0,0,0,0,0,0,0,0,0,0,0,0,0,0,0,0,0,0,0,0,0,0,0,0,0,0,0,0,0,0,0,0,0,0,0,0,0,0,0,0,0,0,0,0,0,0,0,0,0,0,0,0,0,0,0,0,0,0,0],"id":11,"left_children":[1,3,5,7,9,11,13,15,17,-1,-1,19,21,23,25,27,29,31,33,35,37,39,41,43,45,47,49,51,53,55,-1,-1,57,59,-1,61,63,65,67,69,71,73,-1,75,-1,77,-1,-1,79,-1,81,-1,-1,-1,-1,-1,-1,-1,-1,-1,-1,-1,-1,-1,-1,-1,-1,-1,-1,-1,-1,-1,-1,-1,-1,-1,-1,-1,-1,-1,-1,-1,-1],"loss_changes":[2.9074102E1,5.417637E0,2.5121536E1,1.5681796E1,2.7803612E-1,1.904211E1,1.0850115E1,7.320763E0,2.9475079E0,0E0,0E0,1.4068157E1,1.237119E1,7.756016E0,4.410186E0,2.8879738E0,2.275386E0,4.675598E-1,1.8267857E0,5.357022E0,1.1962521E1,7.8452415E0,7.2633605E0,3.121441E0,5.489329E0,1.504859E0,1.4298162E0,1.3473644E0,2.8658965E0,1.5375354E0,0E0,0E0,1.7594528E-1,1.7760205E0,0E0,2.630648E0,1.1935425E0,8.792572E0,3.6879249E0,6.5661335E0,8.077223E0,4.681501E0,0E0,1.4598808E0,0E0,6.620741E-2,0E0,0E0,3.8617337E-1,0E0,1.1010276E0,0E0,0E0,0E0,0E0,0E0,0E0,0E0,0E0,0E0,0E0,0E0,0E0,0E0,0E0,0E0,0E0,0E0,0E0,0E0,0E0,0E0,0E0,0E0,0E0,0E0,0E0,0E0,0E0,0E0,0E0,0E0,0E0],"parents":[2147483647,0,0,1,1,2,2,3,3,4,4,5,5,6,6,7,7,8,8,11,11,12,12,13,13,14,14,15,15,16,16,17,17,18,18,19,19,20,20,21,21,22,22,23,23,24,24,25,25,26,26,27,27,28,28,29,29,32,32,33,33,35,35,36,36,37,37,38,38,39,39,40,40,41,41,43,43,45,45,48,48,50,50],"right_children":[2,4,6,8,10,12,14,16,18,-1,-1,20,22,24,26,28,30,32,34,36,38,40,42,44,46,48,50,52,54,56,-1,-1,58,60,-1,62,64,66,68,70,72,74,-1,76,-1,78,-1,-1,80,-1,82,-1,-1,-1,-1,-1,-1,-1,-1,-1,-1,-1,-1,-1,-1,-1,-1,-1,-1,-1,-1,-1,-1,-1,-1,-1,-1,-1,-1,-1,-1,-1,-1],"split_conditions":[0E0,8.4615386E-1,1.9379845E-3,8.333333E-1,2E0,3E0,1.6666667E-1,3E0,5E0,7.071174E-2,2.960971E-1,1E0,1.28E2,1.6E1,3E0,1.1255411E-1,2.8985508E-2,1E0,1E0,9.708738E-3,3E0,7E0,1E0,1E0,0E0,1.14285715E-1,2.1052632E-1,1.2E1,1.3636364E-1,4E0,2.4410532E-1,6.866907E-2,3E0,1.8E1,2.3115155E-1,1E0,6E0,2E0,1.4E1,3.0303031E-2,1E0,5E0,-2.7412012E-1,5.5555556E-2,1.4787975E-1,2E0,-1.712525E-1,1.09271914E-1,1.875E-1,4.307721E-1,4E0,-6.910945E-2,-5.37144E-1,-3.202689E-1,1.16304494E-1,-2.2416003E-1,9.5837064E-2,2.874347E-1,7.925901E-2,-1.1858242E-1,1.8733752E-1,-6.0737588E-2,2.3453315E-1,-2.6855454E-1,1.7345432E-2,2.2379264E-1,-2.533253E-1,-2.0846097E-1,2.0446244E-1,4.537262E-1,-1.24751695E-1,-2.3846175E-1,1.8454042E-1,2.3798348E-1,-1.7160977E-1,-2.97637E-1,-1.7592917E-1,4.761324E-1,1.3469967E-1,-1.2992785E-2,-2.3143573E-1,-1.00226E-1,2.1440007E-1],"split_indices":[47,33,33,26,2,22,33,0,13,0,0,29,3,13,0,33,33,29,25,27,4,21,9,24,46,27,33,21,26,2,0,0,4,13,0,39,2,8,13,27,34,4,0,33,0,0,0,0,33,0,0,0,0,0,0,0,0,0,0,0,0,0,0,0,0,0,0,0,0,0,0,0,0,0,0,0,0,0,0,0,0,0,0],"split_type":[0,0,0,0,0,0,0,0,0,0,0,0,0,0,0,0,0,0,0,0,0,0,0,0,0,0,0,0,0,0,0,0,0,0,0,0,0,0,0,0,0,0,0,0,0,0,0,0,0,0,0,0,0,0,0,0,0,0,0,0,0,0,0,0,0,0,0,0,0,0,0,0,0,0,0,0,0,0,0,0,0,0,0],"sum_hessian":[3.2834845E2,7.177411E1,2.5657434E2,4.892752E1,2.284659E1,1.79096E2,7.747835E1,1.4600169E1,3.432735E1,1.2557122E0,2.1590878E1,1.0265172E2,7.6444275E1,6.803936E1,9.43899E0,8.059656E0,6.5405126E0,2.5445824E1,8.881527E0,2.1787663E1,8.086406E1,5.635693E1,2.0087349E1,6.3612057E1,4.427303E0,5.126362E0,4.3126273E0,4.4068823E0,3.652774E0,3.5751655E0,2.965347E0,1.7829553E0,2.3662868E1,6.2850685E0,2.5964584E0,9.816891E0,1.1970771E1,7.04579E1,1.0406162E1,5.395138E0,5.0961792E1,1.7132298E1,2.9550514E0,6.2521378E1,1.0906793E0,2.2204604E0,2.2068422E0,1.7363776E0,3.3899844E0,2.1494203E0,2.163207E0,1.0073937E0,3.3994887E0,1.4351153E0,2.2176585E0,1.6877325E0,1.887433E0,2.2356304E1,1.3065647E0,4.853283E0,1.4317858E0,6.4850774E0,3.3318136E0,1.0620854E1,1.3499162E0,6.760106E1,2.8568397E0,8.827663E0,1.5784992E0,2.30066E0,3.0944777E0,4.7250137E1,3.7116554E0,1.489379E1,2.2385073E0,4.4173164E1,1.8348215E1,1.0259527E0,1.1945078E0,1.0952306E0,2.2947538E0,1.115955E0,1.047252E0],"tree_param":{"num_deleted":"0","num_feature":"48","num_nodes":"83","size_leaf_vector":"1"}},{"base_weights":[4.6224953E-3,-1.286951E-1,5.5064625E-1,3.3429775E-1,-3.04072E-1,6.8253815E-1,-3.3275805E-2,5.8033055E-1,-4.4573185E-1,-3.7830123E-1,5.815964E-1,7.3363596E-1,-9.352902E-2,-5.588966E-1,4.018357E-1,-9.343321E-2,8.075681E-1,-7.1706903E-1,5.4803604E-1,-2.6121676E-1,-8.870211E-1,-1.9205077E-1,7.39157E-1,-3.3201437E-2,7.7329415E-1,2.5450918E-1,-3.4294653E-1,-7.9102024E-2,6.0763776E-1,-3.7994918E-1,6.3439274E-1,8.8975914E-2,8.883687E-1,-9.0029645E-1,3.239676E-2,2.126827E-1,1.0123551E-2,-4.0040764E-1,2.874434E-1,-9.4863355E-1,1.2385967E-1,1.0366571E0,1.0089292E-1,7.171302E-2,8.30389E-1,-9.240574E-3,1.21108696E-1,2.4860273E-1,6.1792177E-3,-2.0476168E-1,1.9006968E-1,5.3598937E-3,2.579916E-1,1.4257938E-1,-1.3888398E-1,2.8593272E-1,3.916416E-2,-3.399155E-1,-7.342887E-2,-1.269075E-1,1.6928002E-1,-1.4700466E-1,1.2342326E-1,4.0613663E-1,-7.0986025E-2,-2.9387352E-1,-2.1363322E-2,3.471296E-1,9.871635E-2,-1.3489126E-1,2.0333812E-1,1.5182148E-1,-1.6369599E-1,2.598322E-1,2.3765117E-2],"categories":[],"categories_nodes":[],"categories_segments":[],"categories_sizes":[],"default_left":[0,0,0,0,0,0,0,0,0,0,0,0,0,0,0,0,0,0,0,0,0,0,0,0,0,0,0,0,0,0,0,0,0,0,0,0,0,0,0,0,0,0,0,0,0,0,0,0,0,0,0,0,0,0,0,0,0,0,0,0,0,0,0,0,0,0,0,0,0,0,0,0,0,0,0],"id":12,"left_children":[1,3,5,7,9,11,13,15,17,19,21,23,-1,25,27,29,31,33,35,37,39,-1,41,-1,43,45,-1,-1,47,49,51,53,55,57,59,-1,-1,61,63,65,-1,67,69,71,73,-1,-1,-1,-1,-1,-1,-1,-1,-1,-1,-1,-1,-1,-1,-1,-1,-1,-1,-1,-1,-1,-1,-1,-1,-1,-1,-1,-1,-1,-1],"loss_changes":[2.1037594E1,1.8965042E1,4.3904552E0,1.2598428E1,1.1331426E1,2.5815773E0,2.8325322E0,7.6258545E0,4.702833E0,9.092915E0,3.0650396E0,1.5704079E0,0E0,2.9440653E0,1.0943704E0,3.0216072E0,2.0681992E0,1.812779E0,3.06664E-1,9.942026E0,2.704012E0,0E0,2.248094E0,0E0,1.6420746E0,1.465817E-1,0E0,0E0,6.981721E-1,3.5584064E0,5.605389E-1,1.2538993E0,1.5010929E0,1.3204203E0,1.0905684E0,0E0,0E0,7.6985073E0,1.5196938E1,6.869278E-1,0E0,3.3030224E-1,1.9076703E0,1.4269212E0,9.82851E-1,0E0,0E0,0E0,0E0,0E0,0E0,0E0,0E0,0E0,0E0,0E0,0E0,0E0,0E0,0E0,0E0,0E0,0E0,0E0,0E0,0E0,0E0,0E0,0E0,0E0,0E0,0E0,0E0,0E0,0E0],"parents":[2147483647,0,0,1,1,2,2,3,3,4,4,5,5,6,6,7,7,8,8,9,9,10,10,11,11,13,13,14,14,15,15,16,16,17,17,18,18,19,19,20,20,22,22,24,24,25,25,28,28,29,29,30,30,31,31,32,32,33,33,34,34,37,37,38,38,39,39,41,41,42,42,43,43,44,44],"right_children":[2,4,6,8,10,12,14,16,18,20,22,24,-1,26,28,30,32,34,36,38,40,-1,42,-1,44,46,-1,-1,48,50,52,54,56,58,60,-1,-1,62,64,66,-1,68,70,72,74,-1,-1,-1,-1,-1,-1,-1,-1,-1,-1,-1,-1,-1,-1,-1,-1,-1,-1,-1,-1,-1,-1,-1,-1,-1,-1,-1,-1,-1,-1],"split_conditions":[1E0,9.708738E-3,2E0,8E0,1E0,1E0,8.6E1,1E0,1E0,4E0,2E0,0E0,-9.352902E-2,4E0,3E0,1E0,1.3E1,1E0,1.11E2,1E0,4.1E1,-1.9205077E-1,1.4E1,-3.3201437E-2,2E0,8.8235295E-1,-3.4294653E-1,-7.9102024E-2,6E0,1.724138E-1,4E0,2E0,1E0,1E0,3E0,2.126827E-1,1.0123551E-2,8.5714287E-1,4.0625E-1,1.63E2,1.2385967E-1,4.0625E-1,1.45E2,5.4E1,3E1,-9.240574E-3,1.21108696E-1,2.4860273E-1,6.1792177E-3,-2.0476168E-1,1.9006968E-1,5.3598937E-3,2.579916E-1,1.4257938E-1,-1.3888398E-1,2.8593272E-1,3.916416E-2,-3.399155E-1,-7.342887E-2,-1.269075E-1,1.6928002E-1,-1.4700466E-1,1.2342326E-1,4.0613663E-1,-7.0986025E-2,-2.9387352E-1,-2.1363322E-2,3.471296E-1,9.871635E-2,-1.3489126E-1,2.0333812E-1,1.5182148E-1,-1.6369599E-1,2.598322E-1,2.3765117E-2],"split_indices":[34,27,4,22,24,38,3,29,24,4,0,45,0,13,2,39,20,30,22,28,20,0,22,0,0,27,0,0,4,33,2,13,8,18,8,0,0,27,27,3,0,27,3,3,20,0,0,0,0,0,0,0,0,0,0,0,0,0,0,0,0,0,0,0,0,0,0,0,0,0,0,0,0,0,0],"split_type":[0,0,0,0,0,0,0,0,0,0,0,0,0,0,0,0,0,0,0,0,0,0,0,0,0,0,0,0,0,0,0,0,0,0,0,0,0,0,0,0,0,0,0,0,0,0,0,0,0,0,0,0,0,0,0,0,0,0,0,0,0,0,0,0,0,0,0,0,0,0,0,0,0,0,0],"sum_hessian":[2.87026E2,2.3131279E2,5.5713207E1,6.3298737E1,1.6801405E2,4.5310036E1,1.0403174E1,4.8315372E1,1.4983364E1,1.5555002E2,1.2464026E1,4.334468E1,1.9653529E0,4.5827084E0,5.8204656E0,1.2333911E1,3.598146E1,1.1988479E1,2.9948854E0,1.276778E2,2.7872221E1,1.0738807E0,1.1390146E1,1.8642794E0,4.14804E1,2.1516151E0,2.431093E0,1.3083643E0,4.5121017E0,9.192972E0,3.1409385E0,3.8492982E0,3.2132164E1,9.471629E0,2.51685E0,1.992886E0,1.0019996E0,1.02056946E2,2.5620861E1,2.6868898E1,1.0033218E0,7.343227E0,4.0469193E0,3.291426E0,3.8188976E1,1.0112287E0,1.1403865E0,2.9788575E0,1.5332439E0,7.330868E0,1.862104E0,1.1304712E0,2.0104675E0,2.3461373E0,1.503161E0,2.9365765E1,2.766398E0,6.452241E0,3.019388E0,1.4661137E0,1.0507363E0,9.226879E1,9.788156E0,7.920751E0,1.770011E1,2.5841112E1,1.0277865E0,5.7322903E0,1.6109363E0,2.183667E0,1.8632524E0,2.0379E0,1.2535259E0,3.6309452E1,1.8795247E0],"tree_param":{"num_deleted":"0","num_feature":"48","num_nodes":"75","size_leaf_vector":"1"}},{"base_weights":[9.956918E-3,1.01947196E-1,-7.1880597E-1,2.1107282E-2,7.855703E-1,-8.2746655E-1,3.252781E-1,-4.5723233E-2,9E-1,9.229099E-1,-1.9885086E-1,-5.8592707E-2,-2.77994E-1,2.374256E-1,-8.467327E-2,1.12998046E-1,-4.8620966E-1,2.8563562E-1,4.4289134E-2,9.719496E-1,2.2215357E-2,-1.3679893E-1,2.1885633E-1,-5.3878826E-1,2.4621274E-1,5.3127736E-1,-7.0088595E-1,2.9981765E-1,6.628283E-2,1.1466849E-1,-1.5777564E-2,-2.3534872E-1,2.2738112E-2,4.4750267E-1,5.373278E-2,1.9449665E-1,-3.2345016E-2,-2.7610347E-1,1.5154874E-1],"categories":[],"categories_nodes":[],"categories_segments":[],"categories_sizes":[],"default_left":[0,0,0,0,0,0,0,0,0,0,0,0,0,0,0,0,0,0,0,0,0,0,0,0,0,0,0,0,0,0,0,0,0,0,0,0,0,0,0],"id":13,"left_children":[1,3,5,7,9,11,13,15,17,19,-1,21,-1,-1,-1,23,25,-1,-1,27,-1,-1,29,31,33,35,37,-1,-1,-1,-1,-1,-1,-1,-1,-1,-1,-1,-1],"loss_changes":[1.7410683E1,1.2722124E1,3.5717096E0,1.2208986E1,5.4550924E0,1.9778194E0,1.2037244E0,1.3581384E1,4.3536854E-1,8.711872E-1,0E0,5.5320674E-1,0E0,0E0,0E0,1.2552015E1,1.1607593E1,0E0,0E0,2.1894073E-1,0E0,0E0,1.5745695E-1,3.7722278E0,9.715696E0,7.82799E-1,1.1821146E1,0E0,0E0,0E0,0E0,0E0,0E0,0E0,0E0,0E0,0E0,0E0,0E0],"parents":[2147483647,0,0,1,1,2,2,3,3,4,4,5,5,6,6,7,7,8,8,9,9,11,11,15,15,16,16,19,19,22,22,23,23,24,24,25,25,26,26],"right_children":[2,4,6,8,10,12,14,16,18,20,-1,22,-1,-1,-1,24,26,-1,-1,28,-1,-1,30,32,34,36,38,-1,-1,-1,-1,-1,-1,-1,-1,-1,-1,-1,-1],"split_conditions":[1E0,1E0,2.8E1,8.4615386E-1,1E0,0E0,9.708738E-3,1E0,1E0,5E0,-1.9885086E-1,3E0,-2.77994E-1,2.374256E-1,-8.467327E-2,2E0,6.315789E-2,2.8563562E-1,4.4289134E-2,1E0,2.2215357E-2,-1.3679893E-1,5.7E1,2.4752475E-1,8E0,1E0,8.888889E-1,2.9981765E-1,6.628283E-2,1.1466849E-1,-1.5777564E-2,-2.3534872E-1,2.2738112E-2,4.4750267E-1,5.373278E-2,1.9449665E-1,-3.2345016E-2,-2.7610347E-1,1.5154874E-1],"split_indices":[38,24,20,33,9,47,27,39,17,4,0,2,0,0,0,2,27,0,0,32,0,0,3,26,21,8,26,0,0,0,0,0,0,0,0,0,0,0,0],"split_type":[0,0,0,0,0,0,0,0,0,0,0,0,0,0,0,0,0,0,0,0,0,0,0,0,0,0,0,0,0,0,0,0,0,0,0,0,0,0,0],"sum_hessian":[2.5761627E2,2.2950626E2,2.8110006E1,2.0615845E2,2.3347807E1,2.5648203E1,2.4618044E0,1.9247104E2,1.3687415E1,2.1657068E1,1.6907388E0,3.1122077E0,2.2535994E1,1.2217102E0,1.2400942E0,1.4203484E2,5.0436203E1,1.2552383E1,1.1350317E0,2.0337158E1,1.3199114E0,1.014935E0,2.0972729E0,2.358666E1,1.1844817E2,8.530408E0,4.1905796E1,1.9301138E1,1.036019E0,1.0545069E0,1.0427659E0,1.6652561E1,6.934099E0,4.9701967E0,1.13477974E2,7.197759E0,1.3326484E0,3.565476E1,6.2510347E0],"tree_param":{"num_deleted":"0","num_feature":"48","num_nodes":"39","size_leaf_vector":"1"}},{"base_weights":[7.7385893E-3,2.537141E-1,-2.0123191E-1,-5.7674724E-1,4.2032015E-1,-4.7443187E-1,2.6269937E-1,-1.7639428E-2,-8.6506706E-1,8.875395E-1,1.276383E-1,-5.296837E-1,2.3202713E-1,-2.6371324E-1,5.185577E-1,-2.3386075E-1,5.2908754E-1,-9.886475E-1,5.421023E-2,9.878866E-1,-1.9984868E-1,-4.3176556E-1,5.428111E-1,-2.0026328E-1,-7.282095E-1,-4.832284E-2,-2.9638407E-1,-2.7149284E-1,6.817094E-1,8.1375325E-1,-1.4027505E-2,-3.5524916E-2,-1.0638393E0,1.0527831E0,-2.6569253E-2,-2.0880619E-1,1.536853E-1,4.3342566E-1,-6.780146E-1,-1.6359115E-1,6.167807E-1,4.6655038E-1,-3.7745947E-1,1.5877265E-1,-7.9620916E-1,-3.6961195E-1,5.2909243E-1,-6.4333814E-1,1.8618897E-1,7.654028E-1,-1.6269438E-1,3.0276167E-1,8.348771E-2,-3.340692E-1,-9.931008E-2,2.1819033E-1,4.024309E-1,-1.0677104E-1,2.0534898E-1,-2.378427E-1,4.01654E-2,2.2428532E-1,-5.36503E-2,2.139045E-1,-1.01192795E-1,-2.3017113E-1,1.6036585E-2,-2.5827393E-1,3.0170185E-2,6.331671E-2,-1.9053678E-1,2.1245055E-1,4.5772452E-2,-3.232787E-2,-3.6249024E-1,2.744628E-1,5.466128E-2],"categories":[],"categories_nodes":[],"categories_segments":[],"categories_sizes":[],"default_left":[0,0,0,0,0,0,0,0,0,0,0,0,0,0,0,0,0,0,0,0,0,0,0,0,0,0,0,0,0,0,0,0,0,0,0,0,0,0,0,0,0,0,0,0,0,0,0,0,0,0,0,0,0,0,0,0,0,0,0,0,0,0,0,0,0,0,0,0,0,0,0,0,0,0,0,0,0],"id":14,"left_children":[1,3,5,7,9,11,13,15,17,19,21,23,-1,25,27,-1,29,31,-1,33,35,37,39,41,43,45,-1,47,49,51,-1,-1,53,55,-1,-1,-1,57,59,-1,61,63,65,-1,67,69,71,73,-1,75,-1,-1,-1,-1,-1,-1,-1,-1,-1,-1,-1,-1,-1,-1,-1,-1,-1,-1,-1,-1,-1,-1,-1,-1,-1,-1,-1],"loss_changes":[1.2223106E1,1.5353125E1,1.6422876E1,2.9944816E0,1.2404835E1,6.014139E0,6.6424494E0,3.483708E0,1.7679367E0,4.026346E0,1.3577577E1,4.983656E0,0E0,2.5200899E0,4.4182396E0,0E0,8.39375E-1,6.037731E-1,0E0,2.349228E0,1.6979758E0,5.626947E0,3.0262527E0,3.8239994E0,4.5736637E0,2.74442E0,0E0,2.5012333E0,3.2327576E0,6.719446E-2,0E0,0E0,8.649826E-4,1.8932037E0,0E0,0E0,0E0,1.4636018E0,1.9585924E0,0E0,3.4400263E0,1.6132894E0,4.2306967E0,0E0,2.782938E0,1.5857648E0,2.5086093E-1,1.3715875E0,0E0,2.1136694E0,0E0,0E0,0E0,0E0,0E0,0E0,0E0,0E0,0E0,0E0,0E0,0E0,0E0,0E0,0E0,0E0,0E0,0E0,0E0,0E0,0E0,0E0,0E0,0E0,0E0,0E0,0E0],"parents":[2147483647,0,0,1,1,2,2,3,3,4,4,5,5,6,6,7,7,8,8,9,9,10,10,11,11,13,13,14,14,16,16,17,17,19,19,20,20,21,21,22,22,23,23,24,24,25,25,27,27,28,28,29,29,32,32,33,33,37,37,38,38,40,40,41,41,42,42,44,44,45,45,46,46,47,47,49,49],"right_children":[2,4,6,8,10,12,14,16,18,20,22,24,-1,26,28,-1,30,32,-1,34,36,38,40,42,44,46,-1,48,50,52,-1,-1,54,56,-1,-1,-1,58,60,-1,62,64,66,-1,68,70,72,74,-1,76,-1,-1,-1,-1,-1,-1,-1,-1,-1,-1,-1,-1,-1,-1,-1,-1,-1,-1,-1,-1,-1,-1,-1,-1,-1,-1,-1],"split_conditions":[2E0,2E0,1.1E1,1.5E1,1E0,6.666667E-1,3.4E1,2E0,1.388889E-1,8E0,3E0,5E0,2.3202713E-1,1E0,1.4E1,-2.3386075E-1,3E0,9.708738E-3,5.421023E-2,1E0,2E0,9.708738E-3,9E0,0E0,7E0,4E0,-2.9638407E-1,1E0,1E0,3E1,-1.4027505E-2,-3.5524916E-2,5E0,6.818182E-2,-2.6569253E-2,-2.0880619E-1,1.536853E-1,7E0,1E0,-1.6359115E-1,1E0,1.9379845E-3,1E0,1.5877265E-1,1.28E2,2.8571429E-2,1.7E1,1E0,1.8618897E-1,4E0,-1.6269438E-1,3.0276167E-1,8.348771E-2,-3.340692E-1,-9.931008E-2,2.1819033E-1,4.024309E-1,-1.0677104E-1,2.0534898E-1,-2.378427E-1,4.01654E-2,2.2428532E-1,-5.36503E-2,2.139045E-1,-1.01192795E-1,-2.3017113E-1,1.6036585E-2,-2.5827393E-1,3.0170185E-2,6.331671E-2,-1.9053678E-1,2.1245055E-1,4.5772452E-2,-3.232787E-2,-3.6249024E-1,2.744628E-1,5.466128E-2],"split_indices":[13,0,13,21,1,33,21,2,33,22,0,13,0,9,20,0,2,27,0,38,8,27,21,46,21,0,0,34,38,3,0,0,2,26,0,0,0,21,34,0,8,33,15,0,3,27,13,39,0,4,0,0,0,0,0,0,0,0,0,0,0,0,0,0,0,0,0,0,0,0,0,0,0,0,0,0,0],"split_type":[0,0,0,0,0,0,0,0,0,0,0,0,0,0,0,0,0,0,0,0,0,0,0,0,0,0,0,0,0,0,0,0,0,0,0,0,0,0,0,0,0,0,0,0,0,0,0,0,0,0,0,0,0,0,0,0,0,0,0,0,0,0,0,0,0,0,0,0,0,0,0,0,0,0,0,0,0],"sum_hessian":[2.3580284E2,1.0821304E2,1.275898E2,1.767063E1,9.054242E1,8.028747E1,4.7302334E1,6.3731136E0,1.1297516E1,3.4090305E1,5.645211E1,7.7434395E1,2.8530698E0,1.5461192E1,3.1841143E1,2.4847062E0,3.8884075E0,1.0152407E1,1.1451094E0,3.1293924E1,2.7963817E0,2.4031755E1,3.2420357E1,2.9873339E1,4.7561058E1,1.2739214E1,2.7219782E0,5.336323E0,2.650482E1,2.325612E0,1.5627954E0,1.0122297E0,9.140177E0,2.9535303E1,1.7586216E0,1.6614251E0,1.1349566E0,5.1560307E0,1.8875725E1,1.6580439E0,3.0762312E1,5.928944E0,2.3944395E1,2.0920377E0,4.546902E1,8.416138E0,4.323076E0,3.9632642E0,1.3730584E0,2.5159225E1,1.3455944E0,1.0555693E0,1.2700429E0,8.072806E0,1.0673703E0,1.5536339E1,1.3998965E1,1.1434993E0,4.0125313E0,1.655809E1,2.3176336E0,2.646975E1,4.2925615E0,4.6241755E0,1.3047686E0,1.2162499E1,1.1781895E1,4.2446434E1,3.0225873E0,2.7051384E0,5.7109995E0,2.3327544E0,1.9903215E0,2.6458056E0,1.3174586E0,1.9573769E1,5.585457E0],"tree_param":{"num_deleted":"0","num_feature":"48","num_nodes":"77","size_leaf_vector":"1"}},{"base_weights":[5.165735E-3,-2.4874029E-1,1.7898457E-1,-3.8460642E-1,5.398698E-1,-4.119417E-1,2.9705697E-1,-2.6596883E-1,-2.9954937E-1,6.896829E-1,-1.3653708E-1,-6.59457E-1,6.684396E-1,6.33612E-1,5.9175637E-2,-1.609057E-1,-2.7989277E-1,8.780006E-1,7.33239E-2,-7.698154E-1,6.837956E-2,3.3456203E-1,-4.874797E-2,7.02709E-1,-1.7080875E-1,-6.1091185E-2,2.583169E-1,-2.7002716E-1,6.173302E-1,1.0542232E-2,1.0224324E0,-1.9251941E-1,1.8322076E-1,2.6315685E-2,-8.6858463E-1,7.547056E-1,-9.009442E-2,-2.0601034E-1,1.3021515E-1,-1.8830378E-1,5.420947E-1,-2.2190954E-1,-3.4222946E-2,3.070365E-1,-2.39899E-2,3.276384E-1,9.80211E-2,-2.9037738E-1,6.779403E-2,1.6593793E-1,3.4602818E-1,1.125052E-2,-1.8182987E-1,2.307916E-1,3.9555854E-3],"categories":[],"categories_nodes":[],"categories_segments":[],"categories_sizes":[],"default_left":[0,0,0,0,0,0,0,0,0,0,0,0,0,0,0,0,0,0,0,0,0,0,0,0,0,0,0,0,0,0,0,0,0,0,0,0,0,0,0,0,0,0,0,0,0,0,0,0,0,0,0,0,0,0,0],"id":15,"left_children":[1,3,5,7,9,11,13,15,-1,17,-1,19,21,23,25,27,-1,29,31,33,-1,-1,-1,35,37,39,-1,41,43,-1,45,-1,-1,-1,47,49,-1,-1,-1,51,53,-1,-1,-1,-1,-1,-1,-1,-1,-1,-1,-1,-1,-1,-1],"loss_changes":[9.545708E0,9.626233E0,9.079523E0,5.238229E0,2.301647E0,6.2698765E0,8.57531E0,4.3834863E0,0E0,1.3270268E0,0E0,1.9615707E0,1.8739347E0,2.5905247E0,6.237498E0,5.015652E0,0E0,1.070765E0,1.8892893E0,1.4694395E0,0E0,0E0,0E0,2.3715553E0,1.6461788E0,4.4529753E0,0E0,3.6345022E0,2.1564705E0,0E0,1.774311E-2,0E0,0E0,0E0,1.8326006E0,2.527483E0,0E0,0E0,0E0,4.510358E0,1.2076385E0,0E0,0E0,0E0,0E0,0E0,0E0,0E0,0E0,0E0,0E0,0E0,0E0,0E0,0E0],"parents":[2147483647,0,0,1,1,2,2,3,3,4,4,5,5,6,6,7,7,9,9,11,11,12,12,13,13,14,14,15,15,17,17,18,18,19,19,23,23,24,24,25,25,27,27,28,28,30,30,34,34,35,35,39,39,40,40],"right_children":[2,4,6,8,10,12,14,16,-1,18,-1,20,22,24,26,28,-1,30,32,34,-1,-1,-1,36,38,40,-1,42,44,-1,46,-1,-1,-1,48,50,-1,-1,-1,52,54,-1,-1,-1,-1,-1,-1,-1,-1,-1,-1,-1,-1,-1,-1],"split_conditions":[3E0,1E0,2E0,2E0,3.7E1,1.7E1,2E0,3E0,-2.9954937E-1,4.0625E-1,-1.3653708E-1,1.4285715E-1,8.3E1,1E0,1E0,2.4E1,-2.7989277E-1,1E0,8.333333E-1,9.708738E-3,6.837956E-2,3.3456203E-1,-4.874797E-2,1.15E2,4.4705883E-1,1E0,2.583169E-1,1E0,2E0,1.0542232E-2,1.7E1,-1.9251941E-1,1.8322076E-1,2.6315685E-2,8.888889E-1,5E0,-9.009442E-2,-2.0601034E-1,1.3021515E-1,5.970149E-2,1E0,-2.2190954E-1,-3.4222946E-2,3.070365E-1,-2.39899E-2,3.276384E-1,9.80211E-2,-2.9037738E-1,6.779403E-2,1.6593793E-1,3.4602818E-1,1.125052E-2,-1.8182987E-1,2.307916E-1,3.9555854E-3],"split_indices":[2,5,0,4,21,13,13,10,0,27,0,33,3,38,24,22,0,29,27,27,0,0,0,3,26,34,0,29,10,0,22,0,0,0,26,2,0,0,0,26,39,0,0,0,0,0,0,0,0,0,0,0,0,0,0],"split_type":[0,0,0,0,0,0,0,0,0,0,0,0,0,0,0,0,0,0,0,0,0,0,0,0,0,0,0,0,0,0,0,0,0,0,0,0,0,0,0,0,0,0,0,0,0,0,0,0,0,0,0,0,0,0,0],"sum_hessian":[2.1428215E2,8.6904816E1,1.2737733E2,7.456982E1,1.2335004E1,2.0798174E1,1.06579155E2,6.36939E1,1.0875914E1,1.0987496E1,1.3475069E0,1.7238453E1,3.5597212E0,4.344687E1,6.3132282E1,5.609878E1,7.595122E0,8.090952E0,2.8965442E0,1.5449589E1,1.7888645E0,2.0925221E0,1.4671992E0,4.012657E1,3.3202996E0,5.5701878E1,7.430405E0,4.977284E1,6.3259425E0,1.3655174E0,6.725435E0,1.1595658E0,1.7369784E0,1.6072243E0,1.3842364E1,3.8384304E1,1.7422656E0,1.7189106E0,1.6013889E0,4.656837E1,9.133505E0,1.1473958E1,3.8298878E1,3.7020311E0,2.6239116E0,5.5950785E0,1.1303562E0,1.279667E1,1.0456941E0,2.708059E1,1.1303716E1,3.0820887E1,1.5747485E1,6.0709953E0,3.0625095E0],"tree_param":{"num_deleted":"0","num_feature":"48","num_nodes":"55","size_leaf_vector":"1"}},{"base_weights":[4.903984E-3,6.890299E-2,-5.979709E-1,3.636884E-1,-5.8811273E-2,-7.000753E-1,7.2171815E-2,-3.519272E-1,4.8944288E-1,7.701549E-2,-5.243003E-1,-3.3768356E-2,-8.3119625E-1,1.8173288E-1,-6.6289455E-1,7.98663E-1,2.81617E-1,1.510057E-1,-4.9622372E-1,-6.792596E-1,4.899576E-1,-8.8264965E-2,7.308261E-2,-5.9960708E-2,-8.8350767E-1,-2.897441E-1,3.884236E-2,1.0185121E0,-1.30592035E-2,-1.2652335E-1,4.8497802E-1,2.1563493E-1,-6.486565E-1,-8.852877E-1,6.534755E-1,-9.770646E-1,-7.481354E-2,3.8723335E-1,-1.1781446E-1,-2.7485594E-1,-7.9397574E-2,3.3804882E-1,-6.338866E-2,2.1205153E-1,-2.2472583E-1,-1.3579102E-1,2.1627176E-1,7.1292564E-2,3.2160696E-1,2.6754871E-2,2.3827009E-1,-2.487145E-1,5.6460198E-2,-3.0103925E-1,-7.9537E-3,-5.9499916E-2,3.227171E-1,-3.040063E-1,-1.0159283E-1,1.0919767E-1,-1.8291253E-1],"categories":[],"categories_nodes":[],"categories_segments":[],"categories_sizes":[],"default_left":[0,0,0,0,0,0,0,0,0,0,0,0,0,0,0,0,0,0,0,0,0,0,0,0,0,0,0,0,0,0,0,0,0,0,0,0,0,0,0,0,0,0,0,0,0,0,0,0,0,0,0,0,0,0,0,0,0,0,0,0,0],"id":16,"left_children":[1,3,5,7,9,11,-1,13,15,17,19,21,23,-1,25,27,29,31,33,35,37,-1,-1,-1,39,-1,-1,41,43,45,47,49,51,53,55,57,59,-1,-1,-1,-1,-1,-1,-1,-1,-1,-1,-1,-1,-1,-1,-1,-1,-1,-1,-1,-1,-1,-1,-1,-1],"loss_changes":[7.731888E0,6.839267E0,1.8150787E0,5.1110663E0,8.083543E0,1.4921608E0,0E0,3.0176902E0,2.8016787E0,4.288766E0,4.8692193E0,3.536727E-1,3.0218792E-1,0E0,1.8313117E0,3.2943344E0,2.5273426E0,4.7270784E0,5.7631655E0,4.509351E0,3.6215403E0,0E0,0E0,0E0,2.2353172E-2,0E0,0E0,2.166957E0,3.128835E0,3.2760665E0,2.6545634E0,5.9925246E0,1.1956501E0,8.953905E-1,1.4743602E0,5.003357E-2,2.4483166E0,0E0,0E0,0E0,0E0,0E0,0E0,0E0,0E0,0E0,0E0,0E0,0E0,0E0,0E0,0E0,0E0,0E0,0E0,0E0,0E0,0E0,0E0,0E0,0E0],"parents":[2147483647,0,0,1,1,2,2,3,3,4,4,5,5,7,7,8,8,9,9,10,10,11,11,12,12,14,14,15,15,16,16,17,17,18,18,19,19,20,20,24,24,27,27,28,28,29,29,30,30,31,31,32,32,33,33,34,34,35,35,36,36],"right_children":[2,4,6,8,10,12,-1,14,16,18,20,22,24,-1,26,28,30,32,34,36,38,-1,-1,-1,40,-1,-1,42,44,46,48,50,52,54,56,58,60,-1,-1,-1,-1,-1,-1,-1,-1,-1,-1,-1,-1,-1,-1,-1,-1,-1,-1,-1,-1,-1,-1,-1,-1],"split_conditions":[1E0,1E0,2.8E1,2E0,1.9379845E-3,0E0,7.2171815E-2,2.6086956E-1,1E0,3E0,1.5E1,3E0,3.5E1,1.8173288E-1,8.333333E-1,1E0,3E0,5E0,1.87E2,5.7142857E-2,0E0,-8.8264965E-2,7.308261E-2,-5.9960708E-2,4.4705883E-1,-2.897441E-1,3.884236E-2,6.9E1,6.725979E-1,8.4615386E-1,1E0,9.5E1,1.48E2,2.7E1,2.4E1,2.7E1,1E0,3.8723335E-1,-1.1781446E-1,-2.7485594E-1,-7.9397574E-2,3.3804882E-1,-6.338866E-2,2.1205153E-1,-2.2472583E-1,-1.3579102E-1,2.1627176E-1,7.1292564E-2,3.2160696E-1,2.6754871E-2,2.3827009E-1,-2.487145E-1,5.6460198E-2,-3.0103925E-1,-7.9537E-3,-5.9499916E-2,3.227171E-1,-3.040063E-1,-1.0159283E-1,1.0919767E-1,-1.8291253E-1],"split_indices":[38,47,20,0,33,47,0,26,1,10,13,0,3,0,26,8,0,4,3,33,46,0,0,0,26,0,0,21,26,33,28,3,3,13,21,20,13,0,0,0,0,0,0,0,0,0,0,0,0,0,0,0,0,0,0,0,0,0,0,0,0],"split_type":[0,0,0,0,0,0,0,0,0,0,0,0,0,0,0,0,0,0,0,0,0,0,0,0,0,0,0,0,0,0,0,0,0,0,0,0,0,0,0,0,0,0,0,0,0,0,0,0,0,0,0,0,0,0,0,0,0,0,0,0,0],"sum_hessian":[1.9832631E2,1.800939E2,1.8232407E1,5.388072E1,1.2621318E2,1.640054E1,1.8318661E0,7.784408E0,4.609631E1,9.834986E1,2.7863321E1,2.903514E0,1.34970255E1,1.6756814E0,6.108727E0,1.738563E1,2.871068E1,8.775904E1,1.0590824E1,2.4457039E1,3.406282E0,1.4661429E0,1.4373709E0,1.4016603E0,1.2095366E1,4.2609076E0,1.8478193E0,1.3479932E1,3.9056973E0,9.673684E0,1.9036995E1,8.18724E1,5.88664E0,8.084853E0,2.5059714E0,1.5971545E1,8.485495E0,1.5435327E0,1.8627493E0,1.1032328E1,1.0630375E0,1.2465728E1,1.0142037E0,1.9945313E0,1.9111661E0,7.3218946E0,2.3517897E0,1.4382229E1,4.6547666E0,6.813558E1,1.3736813E1,4.8504205E0,1.0362196E0,6.958771E0,1.1260817E0,1.0062792E0,1.4996922E0,1.4556814E1,1.4147305E0,4.8369594E0,3.6485353E0],"tree_param":{"num_deleted":"0","num_feature":"48","num_nodes":"61","size_leaf_vector":"1"}},{"base_weights":[1.5575562E-3,-3.9174935E-1,9.1156855E-2,7.980232E-1,-5.157053E-1,2.0692445E-1,-2.9522493E-1,1.1082613E-2,3.2269615E-1,-6.52984E-1,2.775812E-1,3.3741558E-1,-1.5562505E-1,2.824711E-1,-6.089818E-1,-7.286009E-1,1.6908091E-1,6.327615E-1,-7.3560484E-2,7.2149276E-3,5.58694E-1,4.3965274E-1,-3.5090336E-1,1.871672E-2,2.7657622E-1,-7.890936E-1,4.6859592E-1,-2.99767E-1,-4.4735965E-1,-2.01338E-2,2.8811654E-1,6.404155E-1,-3.6582732E-1,2.4112278E-1,8.225896E-1,8.051849E-1,-3.3010516E-1,-5.0123847E-1,2.9185128E-1,5.5989474E-1,-3.3603263E-1,-9.1279477E-1,1.7135125E-1,-9.140288E-3,1.986712E-1,-3.5147343E-2,-2.1778235E-1,2.4174496E-3,3.8215676E-1,-1.6447295E-1,1.2371169E-1,1.7515482E-1,-8.4934E-2,1.2250152E-1,3.7200952E-1,6.895204E-2,2.7148148E-1,1.4408063E-2,-1.7551748E-1,-2.0628174E-1,6.852788E-2,2.1595874E-1,-2.2173767E-1,1.4072509E-2,2.156062E-1,1.7733486E-1,-2.3156689E-1,-1.3354732E-1,-3.6602846E-1],"categories":[],"categories_nodes":[],"categories_segments":[],"categories_sizes":[],"default_left":[0,0,0,0,0,0,0,0,0,0,0,0,0,0,0,0,0,0,0,0,0,0,0,0,0,0,0,0,0,0,0,0,0,0,0,0,0,0,0,0,0,0,0,0,0,0,0,0,0,0,0,0,0,0,0,0,0,0,0,0,0,0,0,0,0,0,0,0,0],"id":17,"left_children":[1,3,5,7,9,11,13,-1,-1,15,17,19,21,23,25,27,-1,29,-1,31,33,35,37,39,-1,41,43,-1,45,-1,-1,47,49,51,53,55,57,59,61,63,65,67,-1,-1,-1,-1,-1,-1,-1,-1,-1,-1,-1,-1,-1,-1,-1,-1,-1,-1,-1,-1,-1,-1,-1,-1,-1,-1,-1],"loss_changes":[6.5534387E0,5.500346E0,6.8353996E0,7.311387E-1,3.6505184E0,5.593393E0,6.5753164E0,0E0,0E0,2.936409E0,1.1580791E0,6.3116627E0,3.837147E0,2.1950254E0,4.8745365E0,1.5535536E0,0E0,8.659611E-1,0E0,8.666026E0,4.137928E0,2.59267E0,2.5052087E0,2.1669607E0,0E0,3.930273E0,4.0203154E-1,0E0,1.2672045E0,0E0,0E0,5.4361653E0,3.5051012E0,4.638622E0,4.3086815E0,1.3050413E-1,3.5316682E-1,2.8975515E0,2.852927E0,3.2929194E-1,3.224781E0,2.1808128E0,0E0,0E0,0E0,0E0,0E0,0E0,0E0,0E0,0E0,0E0,0E0,0E0,0E0,0E0,0E0,0E0,0E0,0E0,0E0,0E0,0E0,0E0,0E0,0E0,0E0,0E0,0E0],"parents":[2147483647,0,0,1,1,2,2,3,3,4,4,5,5,6,6,9,9,10,10,11,11,12,12,13,13,14,14,15,15,17,17,19,19,20,20,21,21,22,22,23,23,25,25,26,26,28,28,31,31,32,32,33,33,34,34,35,35,36,36,37,37,38,38,39,39,40,40,41,41],"right_children":[2,4,6,8,10,12,14,-1,-1,16,18,20,22,24,26,28,-1,30,-1,32,34,36,38,40,-1,42,44,-1,46,-1,-1,48,50,52,54,56,58,60,62,64,66,68,-1,-1,-1,-1,-1,-1,-1,-1,-1,-1,-1,-1,-1,-1,-1,-1,-1,-1,-1,-1,-1,-1,-1,-1,-1,-1,-1],"split_conditions":[1E0,1E0,1E0,5.1E1,1E0,1E0,2.2857143E-1,1.1082613E-2,3.2269615E-1,1E0,5.3E1,3E0,9.708738E-3,1E0,8.888889E-1,3E0,1.6908091E-1,3E0,-7.3560484E-2,1.3E1,1.5E-1,2E0,4.8E1,3.32668E-3,2.7657622E-1,9.3333334E-1,1E0,-2.99767E-1,3.32668E-3,-2.01338E-2,2.8811654E-1,2E0,1E0,9.708738E-3,3E0,1.4E1,4.1E1,1E0,1E0,1.6E1,0E0,1E0,1.7135125E-1,-9.140288E-3,1.986712E-1,-3.5147343E-2,-2.1778235E-1,2.4174496E-3,3.8215676E-1,-1.6447295E-1,1.2371169E-1,1.7515482E-1,-8.4934E-2,1.2250152E-1,3.7200952E-1,6.895204E-2,2.7148148E-1,1.4408063E-2,-1.7551748E-1,-2.0628174E-1,6.852788E-2,2.1595874E-1,-2.2173767E-1,1.4072509E-2,2.156062E-1,1.7733486E-1,-2.3156689E-1,-1.3354732E-1,-3.6602846E-1],"split_indices":[29,14,39,3,40,30,27,0,0,24,3,2,27,28,26,2,0,0,0,21,27,13,22,26,0,33,26,0,26,0,0,2,27,27,0,20,21,34,9,20,47,15,0,0,0,0,0,0,0,0,0,0,0,0,0,0,0,0,0,0,0,0,0,0,0,0,0,0,0],"split_type":[0,0,0,0,0,0,0,0,0,0,0,0,0,0,0,0,0,0,0,0,0,0,0,0,0,0,0,0,0,0,0,0,0,0,0,0,0,0,0,0,0,0,0,0,0,0,0,0,0,0,0,0,0,0,0,0,0,0,0,0,0,0,0,0,0,0,0,0,0],"sum_hessian":[1.8395242E2,3.350518E1,1.5044725E2,2.648263E0,3.0856916E1,1.16119896E2,3.432735E1,1.0106859E0,1.637577E0,2.6455616E1,4.4013E0,8.543788E1,3.0682018E1,1.2116992E1,2.221036E1,2.5285131E1,1.1704848E0,2.4954867E0,1.9058133E0,3.469588E1,5.0741997E1,7.2697663E0,2.3412252E1,9.30728E0,2.8097122E0,1.9259024E1,2.951336E0,1.1584821E1,1.3700311E1,1.0492475E0,1.4462391E0,1.2597016E1,2.2098866E1,2.3897507E1,2.6844488E1,4.897897E0,2.3718698E0,1.915275E1,4.2595015E0,3.4563136E0,5.8509665E0,1.7955156E1,1.3038677E0,1.0605882E0,1.8907477E0,6.919362E0,6.780948E0,6.810691E0,5.7863255E0,1.8141792E1,3.9570737E0,1.4381615E1,9.515893E0,1.4466631E1,1.2377857E1,1.211935E0,3.6859617E0,1.2820421E0,1.0898277E0,1.5302025E1,3.850725E0,3.2231667E0,1.0363348E0,1.1231935E0,2.33312E0,1.757091E0,4.0938754E0,8.09108E0,9.864077E0],"tree_param":{"num_deleted":"0","num_feature":"48","num_nodes":"69","size_leaf_vector":"1"}},{"base_weights":[8.435088E-3,-5.654825E-2,5.1049536E-1,1.1462306E-2,-6.8522483E-1,-1.2280084E-1,6.402769E-1,-2.0979308E-1,1.6833737E-1,-8.450982E-1,8.7550946E-2,7.726932E-1,2.021589E-1,-1.4786934E-2,-4.8987725E-1,4.442383E-1,-1.5386596E-3,-2.7029166E-1,-4.0038086E-2,2.4792098E-1,4.6168786E-2,-1.4004214E-1,5.666626E-1,-2.367235E-1,1.2360915E-1,3.3465308E-1,-6.363101E-1,1.0936948E0,2.8353563E-1,-1.3992266E-1,4.2919704E-1,2.1644051E-1,6.190912E-2,-1.8502185E-2,1.7793909E-1,-1.3325988E-1,2.4421407E-1,-2.2051913E-1,4.9200445E-2,8.198283E-3,4.115674E-1,-1.5511831E-2,1.9509938E-1,1.0784527E-1,-8.372851E-2,2.3602551E-1,-1.0765353E-1],"categories":[],"categories_nodes":[],"categories_segments":[],"categories_sizes":[],"default_left":[0,0,0,0,0,0,0,0,0,0,0,0,0,0,0,0,0,0,0,0,0,0,0,0,0,0,0,0,0,0,0,0,0,0,0,0,0,0,0,0,0,0,0,0,0,0,0],"id":18,"left_children":[1,3,5,7,9,-1,11,13,15,17,-1,19,21,23,25,27,29,-1,-1,-1,-1,-1,31,-1,33,35,37,39,41,43,45,-1,-1,-1,-1,-1,-1,-1,-1,-1,-1,-1,-1,-1,-1,-1,-1],"loss_changes":[5.585009E0,6.4933577E0,2.6038117E0,4.820371E0,2.5622063E0,0E0,8.63719E-1,3.1409078E0,3.8074257E0,3.965044E-1,0E0,3.097353E-1,1.5897138E0,3.849356E0,3.0656962E0,2.9206543E0,3.11586E0,0E0,0E0,0E0,0E0,0E0,7.252216E-2,0E0,2.6957593E0,1.9367503E0,1.7335434E0,1.6802406E0,3.250984E0,2.849515E0,3.8639896E0,0E0,0E0,0E0,0E0,0E0,0E0,0E0,0E0,0E0,0E0,0E0,0E0,0E0,0E0,0E0,0E0],"parents":[2147483647,0,0,1,1,2,2,3,3,4,4,6,6,7,7,8,8,9,9,11,11,12,12,13,13,14,14,15,15,16,16,22,22,24,24,25,25,26,26,27,27,28,28,29,29,30,30],"right_children":[2,4,6,8,10,-1,12,14,16,18,-1,20,22,24,26,28,30,-1,-1,-1,-1,-1,32,-1,34,36,38,40,42,44,46,-1,-1,-1,-1,-1,-1,-1,-1,-1,-1,-1,-1,-1,-1,-1,-1],"split_conditions":[1E0,4E0,2E0,3E0,1.04E2,-1.2280084E-1,4.0625E-1,3E0,1E0,9.3333334E-1,8.7550946E-2,1E0,8.3870965E-1,1E0,7E0,1.3E1,1.9E1,-2.7029166E-1,-4.0038086E-2,2.4792098E-1,4.6168786E-2,-1.4004214E-1,1E0,-2.367235E-1,2.4752475E-1,2E0,1E0,3.0303031E-2,1E0,0E0,6E0,2.1644051E-1,6.190912E-2,-1.8502185E-2,1.7793909E-1,-1.3325988E-1,2.4421407E-1,-2.2051913E-1,4.9200445E-2,8.198283E-3,4.115674E-1,-1.5511831E-2,1.9509938E-1,1.0784527E-1,-8.372851E-2,2.3602551E-1,-1.0765353E-1],"split_indices":[5,4,0,2,21,0,27,13,13,26,0,38,27,2,21,20,13,0,0,0,0,0,1,0,26,2,28,27,46,46,2,0,0,0,0,0,0,0,0,0,0,0,0,0,0,0,0],"split_type":[0,0,0,0,0,0,0,0,0,0,0,0,0,0,0,0,0,0,0,0,0,0,0,0,0,0,0,0,0,0,0,0,0,0,0,0,0,0,0,0,0,0,0,0,0,0,0],"sum_hessian":[1.693003E2,1.5068411E2,1.861618E1,1.3686028E2,1.3823847E1,2.0354946E0,1.6580687E1,5.6639305E1,8.022096E1,1.1996036E1,1.8278112E0,1.2146021E1,4.4346642E0,3.4011734E1,2.2627573E1,2.9955017E1,5.0265945E1,1.0876053E1,1.1199821E0,1.086727E1,1.2787508E0,1.4651114E0,2.969553E0,4.4444656E0,2.9567266E1,3.2186594E0,1.9408915E1,4.790243E0,2.5164776E1,3.8554543E1,1.1711401E1,1.375948E0,1.5936052E0,2.182378E1,7.743486E0,1.254285E0,1.9643745E0,1.7349606E1,2.059309E0,1.2183528E0,3.57189E0,1.359674E1,1.1568035E1,8.057598E0,3.0496944E1,8.057258E0,3.654144E0],"tree_param":{"num_deleted":"0","num_feature":"48","num_nodes":"47","size_leaf_vector":"1"}},{"base_weights":[9.541696E-3,-2.6570858E-2,2.5876182E-1,8.287709E-2,-3.2002E-1,-1.1670534E-2,4.7861654E-1,-7.2677124E-1,1.844444E-1,-8.44216E-2,4.6618575E-1,7.578003E-1,1.6458455E-1,-8.125555E-1,9.162698E-2,-5.177152E-1,3.5797924E-1,9.3992E-2,-3.429678E-1,9.611181E-1,-1.0557341E-1,8.2341284E-1,2.7059447E-2,-2.6818854E-1,3.8205534E-1,-1.6520862E-1,-8.917035E-1,-1.1649186E-1,1.6707101E-1,-2.3032685E-1,3.1388473E-2,7.0618564E-1,2.178478E-3,7.031603E-2,-2.0710029E-1,-2.2325847E-1,-2.070476E-2,3.4469938E-1,1.411477E-1,-1.7678393E-1,2.1184602E-1,7.124354E-2,2.68176E-1,6.5155863E-3,-1.6832756E-1,-2.6356036E-2,2.1252453E-1,1.5284206E-1,-1.8959732E-1,-2.8933996E-1,-4.0613133E-2,-3.271005E-3,2.7668425E-1,-1.145055E-1,1.7585725E-1],"categories":[],"categories_nodes":[],"categories_segments":[],"categories_sizes":[],"default_left":[0,0,0,0,0,0,0,0,0,0,0,0,0,0,0,0,0,0,0,0,0,0,0,0,0,0,0,0,0,0,0,0,0,0,0,0,0,0,0,0,0,0,0,0,0,0,0,0,0,0,0,0,0,0,0],"id":19,"left_children":[1,3,-1,5,7,9,11,13,15,17,19,21,23,25,27,29,31,33,35,37,39,41,-1,43,45,47,49,-1,-1,-1,-1,51,53,-1,-1,-1,-1,-1,-1,-1,-1,-1,-1,-1,-1,-1,-1,-1,-1,-1,-1,-1,-1,-1,-1],"loss_changes":[5.0354557E0,5.0716786E0,0E0,4.316183E0,8.932283E0,3.3060503E0,1.8251519E0,1.7552109E0,2.6147199E0,3.8330698E0,3.6582608E0,4.2929077E-1,1.2077925E0,9.681196E-1,9.241187E-1,7.587644E-1,2.052328E0,5.6167865E0,3.6702561E0,8.95462E-2,3.0597026E0,2.1506119E-1,0E0,3.9561117E-1,1.3242283E0,1.4554744E0,9.244795E-1,0E0,0E0,0E0,0E0,1.3078799E0,2.2867906E0,0E0,0E0,0E0,0E0,0E0,0E0,0E0,0E0,0E0,0E0,0E0,0E0,0E0,0E0,0E0,0E0,0E0,0E0,0E0,0E0,0E0,0E0],"parents":[2147483647,0,0,1,1,3,3,4,4,5,5,6,6,7,7,8,8,9,9,10,10,11,11,12,12,13,13,14,14,15,15,16,16,17,17,18,18,19,19,20,20,21,21,23,23,24,24,25,25,26,26,31,31,32,32],"right_children":[2,4,-1,6,8,10,12,14,16,18,20,22,24,26,28,30,32,34,36,38,40,42,-1,44,46,48,50,-1,-1,-1,-1,52,54,-1,-1,-1,-1,-1,-1,-1,-1,-1,-1,-1,-1,-1,-1,-1,-1,-1,-1,-1,-1,-1,-1],"split_conditions":[9.3333334E-1,1.9379845E-3,2.5876182E-1,1E0,7.692308E-2,1E0,3E0,1.7E1,4E1,3E0,6.785714E-1,2E0,3E0,3.4E1,2.7777778E-2,1.3793103E-1,1E0,1E0,2.4E1,4E0,3E0,1.3E1,2.7059447E-2,1E0,3E0,1E0,1E0,-1.1649186E-1,1.6707101E-1,-2.3032685E-1,3.1388473E-2,4.040404E-2,1.2E1,7.031603E-2,-2.0710029E-1,-2.2325847E-1,-2.070476E-2,3.4469938E-1,1.411477E-1,-1.7678393E-1,2.1184602E-1,7.124354E-2,2.68176E-1,6.5155863E-3,-1.6832756E-1,-2.6356036E-2,2.1252453E-1,1.5284206E-1,-1.8959732E-1,-2.8933996E-1,-4.0613133E-2,-3.271005E-3,2.7668425E-1,-1.145055E-1,1.7585725E-1],"split_indices":[33,33,0,34,33,28,13,13,3,22,27,4,0,3,33,26,13,8,22,13,0,20,0,39,2,47,5,0,0,0,0,26,13,0,0,0,0,0,0,0,0,0,0,0,0,0,0,0,0,0,0,0,0,0,0],"split_type":[0,0,0,0,0,0,0,0,0,0,0,0,0,0,0,0,0,0,0,0,0,0,0,0,0,0,0,0,0,0,0,0,0,0,0,0,0,0,0,0,0,0,0,0,0,0,0,0,0,0,0,0,0,0,0],"sum_hessian":[1.6172397E2,1.560848E2,5.639164E0,1.14206635E2,4.187816E1,9.296623E1,2.1240408E1,2.294049E1,1.893767E1,8.139726E1,1.1568966E1,1.0496012E1,1.0744395E1,2.0770475E1,2.1700163E0,3.3598082E0,1.5577861E1,4.8538807E1,3.2858456E1,5.836086E0,5.73288E0,9.34426E0,1.1517515E0,3.515411E0,7.228985E0,2.5991898E0,1.8171286E1,1.1496154E0,1.0204009E0,2.230143E0,1.1296651E0,7.3752522E0,8.202609E0,4.1764164E1,6.7746434E0,1.2635753E1,2.0222704E1,3.2497332E0,2.5863523E0,3.7639759E0,1.9689041E0,1.4728229E0,7.8714375E0,2.2320464E0,1.2833643E0,3.2624118E0,3.966573E0,1.0254939E0,1.5736958E0,1.632548E1,1.845805E0,1.9277529E0,5.4474993E0,5.158464E0,3.0441453E0],"tree_param":{"num_deleted":"0","num_feature":"48","num_nodes":"55","size_leaf_vector":"1"}},{"base_weights":[9.991996E-3,-3.8057886E-2,5.388292E-1,-6.864219E-2,2.4291278E-1,6.781289E-1,-1.5101862E-1,2.3717338E-2,-3.9548525E-1,2.4476254E-1,1.20016366E-1,-4.224186E-1,1.1563552E-1,1.2564166E-1,-7.0242697E-1,1.588097E-1,-9.80952E-2,2.1782427E-1,-5.508492E-1,-8.4212E-2,2.831706E-1,2.936534E-1,-1.7768574E-1,-8.307267E-1,1.3029778E-1,-2.2082959E-1,1.2234317E-1,6.0273554E-2,-1.6498044E-1,1.377513E-1,-5.7035368E-2,1.6627093E-1,-7.502981E-2,-2.73994E-1,-6.5612495E-2],"categories":[],"categories_nodes":[],"categories_segments":[],"categories_sizes":[],"default_left":[0,0,0,0,0,0,0,0,0,0,0,0,0,0,0,0,0,0,0,0,0,0,0,0,0,0,0,0,0,0,0,0,0,0,0],"id":20,"left_children":[1,3,5,7,-1,9,-1,11,13,-1,15,17,19,21,23,-1,-1,-1,25,27,29,31,-1,33,-1,-1,-1,-1,-1,-1,-1,-1,-1,-1,-1],"loss_changes":[3.9050777E0,3.7133813E0,2.1995397E0,4.147514E0,0E0,8.027859E-1,0E0,4.4704943E0,4.9283447E0,0E0,8.119989E-1,3.1486664E0,3.043508E0,1.6291398E0,3.1602373E0,0E0,0E0,0E0,3.3777223E0,5.6742144E0,4.1930966E0,1.6185993E0,0E0,6.893883E-1,0E0,0E0,0E0,0E0,0E0,0E0,0E0,0E0,0E0,0E0,0E0],"parents":[2147483647,0,0,1,1,2,2,3,3,5,5,7,7,8,8,10,10,11,11,12,12,13,13,14,14,18,18,19,19,20,20,21,21,23,23],"right_children":[2,4,6,8,-1,10,-1,12,14,-1,16,18,20,22,24,-1,-1,-1,26,28,30,32,-1,34,-1,-1,-1,-1,-1,-1,-1,-1,-1,-1,-1],"split_conditions":[1E0,9.3333334E-1,2E0,1E0,2.4291278E-1,1E0,-1.5101862E-1,1E0,2.5641027E-1,2.4476254E-1,1.8644068E-1,1E0,1.5E-1,1E0,1E0,1.588097E-1,-9.80952E-2,2.1782427E-1,1E0,4E-2,1.9379845E-3,1.9379845E-3,-1.7768574E-1,1E0,1.3029778E-1,-2.2082959E-1,1.2234317E-1,6.0273554E-2,-1.6498044E-1,1.377513E-1,-5.7035368E-2,1.6627093E-1,-7.502981E-2,-2.73994E-1,-6.5612495E-2],"split_indices":[24,33,9,39,0,30,0,29,27,0,27,14,27,10,26,0,0,0,40,27,33,33,0,27,0,0,0,0,0,0,0,0,0,0,0],"split_type":[0,0,0,0,0,0,0,0,0,0,0,0,0,0,0,0,0,0,0,0,0,0,0,0,0,0,0,0,0,0,0,0,0,0,0],"sum_hessian":[1.5187228E2,1.4007332E2,1.1798957E1,1.36083E2,3.990339E0,1.0716038E1,1.0829196E0,1.0682402E2,2.9258966E1,8.2243595E0,2.4916782E0,1.7634972E1,8.918905E1,1.1064418E1,1.8194548E1,1.204433E0,1.2872452E0,1.3056474E0,1.6329325E1,4.08991E1,4.8289948E1,9.44503E0,1.6193868E0,1.6591192E1,1.6033558E0,1.3879449E1,2.4498768E0,2.5720905E1,1.5178195E1,3.5221912E1,1.3068037E1,6.372062E0,3.0729682E0,1.4184782E1,2.4064105E0],"tree_param":{"num_deleted":"0","num_feature":"48","num_nodes":"35","size_leaf_vector":"1"}},{"base_weights":[7.6323706E-3,-4.382098E-2,4.4815645E-1,4.4829607E-2,-3.9447007E-1,-1.8818812E-1,5.651985E-1,-3.277E-2,4.0460643E-1,-7.210394E-1,-2.3757987E-2,-9.406898E-3,-7.568152E-2,2.7746803E-1,2.386616E-1,-1.8648952E-1,1.7210768E-1,8.359221E-2,6.3451505E-1,-8.67895E-1,-1.5517059E-1,-3.6231607E-1,3.9450687E-1,6.185416E-1,-1.5792534E-1,-2.559806E-1,4.92079E-1,6.365075E-1,-1.4837273E-2,7.1536905E-1,-5.321363E-1,-1.3057454E-1,2.572053E-1,-9.31573E-1,-3.5920445E-2,-4.220889E-1,9.442752E-2,3.6428064E-2,-6.887397E-1,6.60572E-1,-3.9072894E-2,2.4614468E-1,1.7322855E-2,1.1893008E-1,-1.03717566E-1,-1.4831582E-1,2.699039E-1,9.819115E-3,2.4870785E-1,4.75153E-2,-1.7758992E-1,2.4454296E-1,5.684803E-2,1.0800671E-2,-2.0651634E-1,-1.2902078E-1,6.4938985E-2,-5.7759766E-2,-3.0951107E-1,-3.3329297E-2,-1.5612292E-1,1.3316303E-1,-1.5817307E-1,-4.240531E-2,-2.501838E-1,2.8202516E-1,2.1604586E-2],"categories":[],"categories_nodes":[],"categories_segments":[],"categories_sizes":[],"default_left":[0,0,0,0,0,0,0,0,0,0,0,0,0,0,0,0,0,0,0,0,0,0,0,0,0,0,0,0,0,0,0,0,0,0,0,0,0,0,0,0,0,0,0,0,0,0,0,0,0,0,0,0,0,0,0,0,0,0,0,0,0,0,0,0,0,0,0],"id":21,"left_children":[1,3,5,7,9,11,13,15,17,19,21,-1,-1,23,-1,25,27,29,31,33,35,37,39,41,-1,43,45,47,49,51,53,55,-1,57,-1,59,-1,61,63,65,-1,-1,-1,-1,-1,-1,-1,-1,-1,-1,-1,-1,-1,-1,-1,-1,-1,-1,-1,-1,-1,-1,-1,-1,-1,-1,-1],"loss_changes":[3.2875164E0,4.0589275E0,1.2360117E0,2.9354403E0,3.1713195E0,2.3311324E-2,6.448798E-1,2.77277E0,1.3230491E0,1.0260925E0,2.0360723E0,0E0,0E0,2.3388257E0,0E0,2.4930613E0,3.2932248E0,3.8555074E0,1.9383245E0,4.064293E-1,6.4660573E-1,1.0546166E0,9.8785496E-1,5.88516E-1,0E0,2.841712E0,2.4573867E0,1.237401E0,2.8874812E0,9.924507E-2,4.7727716E-1,4.344352E-1,0E0,5.3189945E-1,0E0,3.5116255E-2,0E0,1.2698803E0,2.3181319E-1,6.644852E-1,0E0,0E0,0E0,0E0,0E0,0E0,0E0,0E0,0E0,0E0,0E0,0E0,0E0,0E0,0E0,0E0,0E0,0E0,0E0,0E0,0E0,0E0,0E0,0E0,0E0,0E0,0E0],"parents":[2147483647,0,0,1,1,2,2,3,3,4,4,5,5,6,6,7,7,8,8,9,9,10,10,13,13,15,15,16,16,17,17,18,18,19,19,20,20,21,21,22,22,23,23,25,25,26,26,27,27,28,28,29,29,30,30,31,31,33,33,35,35,37,37,38,38,39,39],"right_children":[2,4,6,8,10,12,14,16,18,20,22,-1,-1,24,-1,26,28,30,32,34,36,38,40,42,-1,44,46,48,50,52,54,56,-1,58,-1,60,-1,62,64,66,-1,-1,-1,-1,-1,-1,-1,-1,-1,-1,-1,-1,-1,-1,-1,-1,-1,-1,-1,-1,-1,-1,-1,-1,-1,-1,-1],"split_conditions":[1.4473684E-1,1.9379845E-3,3.8E1,1E0,4.347826E-2,1.8E1,3E0,1.9E1,9.3333334E-1,7.8E1,1.7391305E-1,-9.406898E-3,-7.568152E-2,7.894737E-1,2.386616E-1,3E0,1E0,2.2857143E-1,1E0,4E0,9.375E-1,1.8E1,1E0,1E0,-1.5792534E-1,9E0,1E0,2E0,1E0,3.7857142E-1,1.2698413E-1,3E0,2.572053E-1,3.4E1,-3.5920445E-2,5E0,9.442752E-2,8.163265E-2,2.1E1,1E0,-3.9072894E-2,2.4614468E-1,1.7322855E-2,1.1893008E-1,-1.03717566E-1,-1.4831582E-1,2.699039E-1,9.819115E-3,2.4870785E-1,4.75153E-2,-1.7758992E-1,2.4454296E-1,5.684803E-2,1.0800671E-2,-2.0651634E-1,-1.2902078E-1,6.4938985E-2,-5.7759766E-2,-3.0951107E-1,-3.3329297E-2,-1.5612292E-1,1.3316303E-1,-1.5817307E-1,-4.240531E-2,-2.501838E-1,2.8202516E-1,2.1604586E-2],"split_indices":[33,33,3,34,33,20,0,20,27,3,26,0,0,27,0,8,1,27,29,0,27,20,4,18,0,21,4,0,8,26,26,0,0,3,0,13,0,33,21,1,0,0,0,0,0,0,0,0,0,0,0,0,0,0,0,0,0,0,0,0,0,0,0,0,0,0,0],"split_type":[0,0,0,0,0,0,0,0,0,0,0,0,0,0,0,0,0,0,0,0,0,0,0,0,0,0,0,0,0,0,0,0,0,0,0,0,0,0,0,0,0,0,0,0,0,0,0,0,0,0,0,0,0,0,0,0,0,0,0,0,0,0,0,0,0,0,0],"sum_hessian":[1.4317252E2,1.2900519E2,1.4167322E1,1.0366812E2,2.533707E1,2.1065233E0,1.2060799E1,8.602291E1,1.7645208E1,1.29681225E1,1.2368948E1,1.0430851E0,1.0634383E0,6.342561E0,5.718238E0,4.919883E1,3.682408E1,7.9326644E0,9.712544E0,9.872301E0,3.0958211E0,6.909734E0,5.459214E0,4.6150446E0,1.727516E0,4.5193413E1,4.005419E0,9.878815E0,2.6945269E1,3.835436E0,4.0972285E0,2.2841458E0,7.4283986E0,8.872026E0,1.0002745E0,2.0393047E0,1.0565164E0,3.5102167E0,3.399517E0,3.4507437E0,2.0084708E0,3.0527174E0,1.5623273E0,5.051717E0,4.0141697E1,1.1088617E0,2.8965569E0,2.6712494E0,7.207565E0,2.1282907E1,5.662362E0,2.761441E0,1.0739951E0,1.0497757E0,3.0474524E0,1.0976301E0,1.1865158E0,1.4073697E0,7.464657E0,1.0014966E0,1.0378083E0,2.1608078E0,1.3494087E0,1.1264713E0,2.2730458E0,1.9346758E0,1.5160677E0],"tree_param":{"num_deleted":"0","num_feature":"48","num_nodes":"67","size_leaf_vector":"1"}},{"base_weights":[8.215811E-3,-1.1555966E-1,1.5574802E-1,-3.42635E-1,2.3875052E-1,3.767513E-2,7.190168E-1,-4.5849782E-1,3.2283512E-1,4.666659E-1,-1.3176309E-1,9.943822E-1,-3.0972937E-2,8.3744854E-1,1.0884252E-2,-2.0272644E-1,-7.130209E-1,6.4405257E-1,-1.8486825E-1,-1.1154823E-1,6.347441E-1,6.047562E-1,-3.6671215E-1,5.02849E-1,-4.547239E-4,4.656654E-1,-1.4243458E-1,1.1129935E0,3.5524514E-1,-3.4619856E-1,3.2911634E-1,-8.7115747E-1,-1.9448087E-1,-7.6187536E-2,8.759398E-1,-4.7121164E-1,1.3639688E-1,7.435962E-1,-8.581662E-2,-2.6020316E-2,2.943178E-1,1.18472226E-1,-5.4148036E-1,-1.741494E-1,7.0098346E-1,-3.318228E-1,2.0021825E-1,9.290856E-2,3.693058E-1,-1.0714272E-2,1.527735E-1,-1.5401118E-1,1.6806396E-2,-3.164536E-2,1.6185808E-1,-2.7914298E-1,-2.79996E-2,1.5001926E-1,-2.3356232E-1,3.264044E-1,7.317412E-2,-1.9758908E-1,-8.656669E-3,2.5088233E-1,5.7663303E-2,-1.9208127E-1,8.1286235E-3,-4.9059354E-2,2.57024E-1,-2.2297789E-1,4.027282E-4,1.4082696E-1,-1.4858831E-1],"categories":[],"categories_nodes":[],"categories_segments":[],"categories_sizes":[],"default_left":[0,0,0,0,0,0,0,0,0,0,0,0,0,0,0,0,0,0,0,0,0,0,0,0,0,0,0,0,0,0,0,0,0,0,0,0,0,